been 0.29783573746681213 0.5292145013809204 -0.03714333474636078 0.37452414631843567 0.1093384250998497 -0.04130290076136589 -0.03741023316979408 -0.2265925109386444 0.15647804737091064 -0.2976054549217224 0.19468054175376892 0.1658647358417511 -0.26907864212989807 0.3310876488685608 -0.3146038353443146 0.030825672671198845 -0.10915112495422363 -0.011505186557769775 0.5031023025512695 0.3905041813850403 0.004240499809384346 0.35407647490501404 0.36877021193504333 0.025862546637654305 -0.6197905540466309 0.21077683568000793 -0.17689895629882812 0.008026326075196266 -0.06806375086307526 -0.3238653838634491 -0.3122465908527374 -0.1833115667104721 0.22624917328357697 0.20548811554908752 -0.3554103672504425 0.14777323603630066 -0.2895093858242035 0.3117723762989044 0.4197288751602173 -0.12236674875020981 -0.1602717936038971 0.30765199661254883 -0.12887395918369293 0.009278934448957443 0.11673376709222794 -0.16577714681625366 0.10267607867717743 0.007021906785666943 0.7128839492797852 0.43360593914985657 -0.03342553973197937 0.19580861926078796 0.450529009103775 -0.2105618119239807 -0.2973928153514862 0.6418122053146362 0.09883852303028107 0.29203876852989197 -0.212277352809906 0.08308195322751999 0.09076028317213058 -0.0668373703956604 -0.6374061703681946 -0.001960122026503086 0.42401811480522156 -0.4249108135700226 -0.034789834171533585 -0.29112061858177185 0.13714802265167236 0.1621464043855667 -0.09666832536458969 0.37997573614120483 0.11729027330875397 -0.035809651017189026 -0.4068543016910553 -0.45332637429237366 0.37724965810775757 -0.06733036786317825 -0.22012756764888763 -0.38265568017959595 -0.12461142987012863 -0.15683363378047943 -0.1704827845096588 -0.2112092673778534 0.06344986706972122 0.07724431902170181 -0.4531494081020355 0.011181147769093513 0.15427951514720917 -0.1492253541946411 0.27007973194122314 0.17718560993671417 -0.05395547300577164 -0.028863437473773956 -0.37786364555358887 0.1901424378156662 -0.40739622712135315 -0.1441153883934021 0.18349657952785492 0.38034841418266296
year 0.020768621936440468 0.037713099271059036 -0.10658843070268631 0.49906155467033386 -0.18146659433841705 0.28081610798835754 -0.011978198774158955 -0.05210154131054878 0.2563459873199463 -0.1658850908279419 0.13140682876110077 0.14889807999134064 0.08397672325372696 0.04554402455687523 -0.1434270441532135 -0.23404626548290253 0.13064922392368317 -0.2814444303512573 0.006696167401969433 0.4689708948135376 0.15525104105472565 0.01547272503376007 -0.2010171115398407 0.5085477232933044 0.3177107572555542 0.27324575185775757 -0.007384832017123699 -0.11064261198043823 -0.2071337103843689 0.06898089498281479 -0.04118208959698677 -0.09140848368406296 0.37322017550468445 0.26706549525260925 -0.11888294667005539 -0.18084435164928436 0.3118622899055481 0.24365180730819702 0.25972282886505127 -0.010898223146796227 0.009813406504690647 0.15273450314998627 0.06814829260110855 0.014687430113554 -0.18979115784168243 -0.0511663556098938 0.14523087441921234 0.01865682750940323 0.34867650270462036 0.06707049161195755 -0.02886064536869526 -0.12106744199991226 0.20256951451301575 -0.4646156430244446 0.3464866280555725 -0.38852789998054504 -0.35254064202308655 -0.13815940916538239 -0.4650619328022003 -0.018901163712143898 -0.03777794912457466 -0.16725143790245056 0.4656383991241455 0.05692491680383682 0.46642690896987915 -0.008787250146269798 0.5530655384063721 -0.1101435050368309 -0.12300165742635727 -0.11786304414272308 -0.2453804761171341 0.3049519658088684 0.2793590724468231 -0.0800989642739296 0.2031840980052948 -0.02972809039056301 0.2522319555282593 0.40750935673713684 -0.017177870497107506 0.0899045392870903 0.012286290526390076 -0.17911840975284576 0.40101757645606995 -0.23738260567188263 -0.1715504229068756 -0.25895076990127563 -0.04563160240650177 0.2271318882703781 0.10663603991270065 0.4715145230293274 -0.020570052787661552 0.1646188348531723 -0.014681704342365265 -0.11386975646018982 -0.014288822188973427 -0.45002463459968567 0.5492310523986816 -0.4052901864051819 0.17295651137828827 0.4228512942790985
about -0.13475486636161804 -0.021468184888362885 0.11924084275960922 -0.20906727015972137 0.3487347364425659 0.021733783185482025 -0.03826916590332985 -0.1735633760690689 -0.19789929687976837 -0.34757503867149353 0.1989632397890091 -0.05158026143908501 0.039202019572257996 0.017970459535717964 0.31414180994033813 -0.05728064849972725 -0.20494268834590912 0.08050113916397095 -0.04823952540755272 0.22019468247890472 -0.21069347858428955 0.37140217423439026 -0.24995383620262146 0.07593695819377899 -0.1993165761232376 0.2960262894630432 -0.23374344408512115 0.25827986001968384 -0.2314857542514801 -0.0756957083940506 0.37416407465934753 -0.29004403948783875 0.1502283662557602 0.19603124260902405 -0.006149268709123135 -0.10994502156972885 -0.0680946558713913 0.34996384382247925 -0.1356028914451599 0.29633089900016785 -0.03771800547838211 0.28776007890701294 -0.0758347287774086 -0.22295770049095154 -0.17113420367240906 0.06596386432647705 0.22627481818199158 0.3703979551792145 -0.03737116605043411 0.02674734592437744 -0.22364166378974915 -0.06366804242134094 0.08242985606193542 -0.16451790928840637 -0.1874702274799347 -0.09837900102138519 0.021264836192131042 -0.031059501692652702 -0.059765152633190155 -0.14808844029903412 -0.24091801047325134 -0.10795116424560547 0.5794294476509094 -0.260854035615921 -0.0434674508869648 0.28650227189064026 0.22487452626228333 -0.19366519153118134 -0.048167672008275986 0.21367987990379333 0.17314764857292175 -0.039768036454916 0.12279127538204193 -0.04545795917510986 -0.17291255295276642 0.17209063470363617 -0.013944740407168865 -0.4621178209781647 0.08097555488348007 -0.0926942527294159 -0.19534482061862946 -0.22475293278694153 0.18439194560050964 -0.04189102724194527 0.13403567671775818 -0.21628338098526 0.3936517834663391 0.05587209761142731 0.20261771976947784 0.17392730712890625 0.424890398979187 0.021433405578136444 0.1157173216342926 0.1943344920873642 -0.31423890590667725 -0.4783090353012085 -0.34785187244415283 0.22060179710388184 -0.008470342494547367 0.04300929978489876
your 0.3815540075302124 -0.09398408979177475 -0.038284529000520706 0.08461812883615494 0.03849111497402191 0.07230696082115173 -0.17037716507911682 -0.29653486609458923 0.21174615621566772 0.38184425234794617 -0.04871883988380432 -0.25145140290260315 0.38682982325553894 -0.011813152581453323 0.09265200048685074 -0.006703507620841265 -0.2586277723312378 -0.38070163130760193 -0.22960491478443146 -0.36134448647499084 -0.07982613146305084 0.2999957203865051 0.44046804308891296 -0.1662236452102661 0.2650028169155121 0.1349753588438034 0.0809703841805458 -0.025822393596172333 -0.05031472444534302 -0.06913144886493683 0.0918106958270073 -0.33012184500694275 0.0575774721801281 -0.22213971614837646 0.11328639835119247 -0.45623156428337097 -0.22529414296150208 0.47501707077026367 0.24118834733963013 0.20116662979125977 -0.10261834412813187 0.03638764098286629 0.12900593876838684 0.09436457604169846 0.023638397455215454 -0.2820531129837036 -0.390951931476593 0.46060633659362793 0.057542089372873306 0.20520807802677155 0.1940983086824417 -0.09557203948497772 -0.18901565670967102 0.07452581077814102 0.09157205373048782 -0.16689574718475342 -0.1393814980983734 -0.2737732529640198 -0.2475513368844986 0.07762805372476578 -0.058980025351047516 -0.06249541789293289 0.1820438951253891 -0.06991613656282425 -0.09549645334482193 0.21139881014823914 -0.43019163608551025 -0.028559761121869087 0.10040633380413055 0.12240753322839737 -0.14466352760791779 -0.19810394942760468 0.07246645539999008 0.004226342774927616 -0.07533947378396988 -0.090703584253788 -0.2934979498386383 -0.252934068441391 0.017612336203455925 0.32505708932876587 -0.21277064085006714 -0.1394130140542984 -0.2186693698167801 0.43584272265434265 -0.05410035699605942 -0.18537837266921997 0.17479762434959412 0.09701438993215561 -0.0950295701622963 0.016602078452706337 -0.0566532202064991 -0.05878249928355217 -0.16373074054718018 0.2992056906223297 -0.20034952461719513 0.044016361236572266 0.10890135169029236 0.039444562047719955 0.29477691650390625 0.042957570403814316
without 0.16253767907619476 0.11679146438837051 -0.21248340606689453 0.053710997104644775 -0.09373525530099869 0.05296114832162857 0.15033763647079468 -0.06250566989183426 0.16919322311878204 -2.1628045942634344E-4 -0.1279240995645523 0.3694324195384979 -0.14120014011859894 0.04102696105837822 -0.018275443464517593 0.12515820562839508 -0.08307888358831406 -0.385916143655777 0.0261990986764431 0.09960499405860901 -0.39866888523101807 -0.02305816486477852 0.21282519400119781 0.13400228321552277 0.024846240878105164 0.3751784563064575 0.18421460688114166 -0.06183668598532677 -0.13770292699337006 -0.20679835975170135 0.0678751990199089 -0.08187875896692276 0.1424708217382431 0.17136059701442719 -0.1567869782447815 6.493492983281612E-4 0.05456989258527756 -0.3801003098487854 0.11270220577716827 -0.00832331646233797 -0.07376738637685776 0.5334046483039856 -0.1474381536245346 -0.06931980699300766 0.08177829533815384 -0.17125417292118073 0.17530760169029236 0.11234818398952484 -0.045839495956897736 0.05803018808364868 -0.10051020979881287 -0.15958470106124878 0.26745373010635376 0.07904139161109924 -0.17292892932891846 0.14801758527755737 0.1458798497915268 -0.23985451459884644 -0.10233694314956665 0.23640434443950653 0.030964968726038933 0.2730918526649475 0.009458580985665321 -0.02059222012758255 0.16410304605960846 -0.25347912311553955 -0.11856505274772644 -0.32832038402557373 0.16614875197410583 0.14258171617984772 -0.2004833221435547 -0.17302866280078888 -0.019199326634407043 -0.23318080604076385 0.2675711214542389 0.20678094029426575 -0.022356413304805756 -0.1484643667936325 -0.058426838368177414 0.11890530586242676 -0.047826047986745834 -0.22916695475578308 -0.07728303968906403 -0.0032687149941921234 0.2922949194908142 -0.32065603137016296 0.033888451755046844 0.05767735838890076 -0.05097778141498566 0.044980935752391815 -0.1341099888086319 -0.02838895656168461 0.291147381067276 0.15704189240932465 -0.006746009457856417 -0.42445194721221924 0.11534988880157471 0.13873454928398132 0.05092068761587143 0.1434248685836792
these 0.004325483925640583 -0.1296359747648239 0.16586199402809143 -0.08196291327476501 0.4561660587787628 0.00958121195435524 -0.20148667693138123 0.22210004925727844 0.09844395518302917 -0.18186190724372864 0.10106943547725677 0.17113666236400604 -0.4647391736507416 -0.2024640142917633 0.34490618109703064 0.40223583579063416 0.11129333078861237 -0.15589243173599243 -0.3502879738807678 -0.6419603824615479 0.2210189253091812 0.09493334591388702 -0.060618601739406586 -0.13853809237480164 0.13609223067760468 -0.12328723073005676 0.03821605071425438 -0.005060261115431786 -0.028812767937779427 0.03384197875857353 0.3299197852611542 -0.07116255909204483 0.3560165464878082 0.07672519236803055 -0.13288730382919312 -0.2734910845756531 -0.0258003082126379 0.04045051336288452 0.3405711054801941 -0.20958460867404938 -0.11524094641208649 0.16152600944042206 0.218195840716362 0.11246785521507263 0.2641865313053131 -0.07546143233776093 -0.16164836287498474 -0.016812574118375778 0.2163086235523224 -0.20837369561195374 -0.010740085504949093 0.027714617550373077 0.0863645151257515 0.10148797929286957 -0.37026920914649963 -0.17899048328399658 0.04195820167660713 -0.04683744162321091 -0.03056386485695839 -0.041807789355516434 0.2506130337715149 0.16221173107624054 -0.057884249836206436 -0.1553575098514557 -0.206606924533844 -0.08273250609636307 -0.20706462860107422 0.025275541469454765 -0.3092746138572693 0.18366247415542603 0.18426580727100372 0.12053012102842331 0.0072654783725738525 0.35911914706230164 0.4951246976852417 -0.022147731855511665 -0.4660773277282715 -0.2240777313709259 0.09838802367448807 0.29881152510643005 0.04551292955875397 0.440070778131485 -0.0323236882686615 -0.12488386034965515 -0.15952487289905548 -0.14511406421661377 -0.08573079109191895 0.022327102720737457 0.10867392271757126 -0.4757193624973297 0.18597161769866943 0.47868746519088745 0.003763114335015416 -0.1558096557855606 0.10347278416156769 -0.24426136910915375 0.05972040817141533 -0.03899437561631203 -0.20636844635009766 0.3625984191894531
companies 0.25057265162467957 0.04966297373175621 -0.23306594789028168 -0.023170383647084236 -0.08378670364618301 0.01588236540555954 0.05759866535663605 0.11404354870319366 -0.04333443194627762 -0.03867431730031967 0.06185981631278992 0.0657610148191452 -0.17655299603939056 0.12230108678340912 0.07189226895570755 0.13610638678073883 0.19554585218429565 -0.21050705015659332 0.08290799707174301 -0.18923062086105347 -0.030103284865617752 -0.035772811621427536 -0.034344382584095 -0.07431945204734802 0.18657244741916656 0.045475151389837265 -0.052492666989564896 0.003492754651233554 0.11889711767435074 0.06981054693460464 -0.020056575536727905 0.006558998022228479 -0.10711600631475449 -0.2395007461309433 0.16881071031093597 -0.2507430613040924 -0.07192332297563553 0.07580041140317917 0.13071468472480774 -0.04663107544183731 -0.02325054630637169 0.05347616970539093 -0.1361885666847229 0.177754744887352 -0.01999294012784958 0.09381101280450821 -0.0866842046380043 0.033509764820337296 0.21889576315879822 -0.03608887642621994 -0.015005800873041153 0.10279615968465805 0.2997627258300781 -0.16378413140773773 -0.15703609585762024 -0.0691097155213356 -0.05813625454902649 0.009429250843822956 0.051855992525815964 -0.010003880597651005 0.2291424423456192 0.3567289412021637 -0.07735446840524673 -0.23794981837272644 -5.68414106965065E-5 -0.1614227145910263 -0.1353321373462677 0.10754789412021637 -0.18153421580791473 -0.06597073376178741 0.013400265015661716 0.052821360528469086 0.24280333518981934 0.13213571906089783 0.2921323776245117 0.18233723938465118 -0.24879205226898193 -0.03692864254117012 0.035686805844306946 0.02608903869986534 0.22431819140911102 0.00917799025774002 -0.12670205533504486 0.16877946257591248 -0.1916087418794632 -0.03772474825382233 0.025781048461794853 0.06600245088338852 0.03045038692653179 -0.055757977068424225 0.15245486795902252 0.10862016677856445 -0.14073258638381958 -0.17573858797550201 0.1347978413105011 -0.05990157648921013 -0.14945314824581146 -0.043261319398880005 -0.08824101090431213 0.20669293403625488
music 0.29681190848350525 0.15933650732040405 -0.3277754485607147 0.07904373109340668 0.11512897908687592 -0.17929038405418396 -0.03638749569654465 0.15044061839580536 -0.09559717774391174 0.14574235677719116 -0.053699128329753876 -0.20474329590797424 0.12157463282346725 0.17942361533641815 -0.16166293621063232 -0.23407772183418274 -0.07784651219844818 -0.011784274131059647 -0.0031783245503902435 -0.06975104659795761 -0.0024994625709950924 -0.18721972405910492 -0.2354283332824707 -0.1943800449371338 -0.03817083686590195 0.20953558385372162 -0.3555919826030731 -0.1025533527135849 0.3339807689189911 -0.16072198748588562 0.0636005774140358 0.08097266405820847 -0.0736134722828865 -0.030602360144257545 0.18532031774520874 0.1769682615995407 0.07569505274295807 0.16609424352645874 0.039594534784555435 0.2520656883716583 -0.010145635344088078 -0.22725047171115875 0.09456390887498856 0.07533890753984451 7.733264937996864E-4 -0.013110943138599396 -0.057508982717990875 -0.10730461776256561 -0.11807921528816223 0.1435489058494568 0.0265580415725708 0.1051989197731018 -0.03545121103525162 -0.042059678584337234 0.08263612538576126 -0.32302984595298767 -0.13072524964809418 0.1231747567653656 0.181690514087677 -0.10799586027860641 -0.1445753574371338 -0.015108749270439148 0.19238494336605072 -0.030023964121937752 0.23015820980072021 -0.0011202278546988964 0.24177922308444977 -0.11511148512363434 -0.32023340463638306 -0.03496641665697098 0.14461584389209747 0.010505307465791702 -0.2132306694984436 0.021683016791939735 0.15504445135593414 0.09682798385620117 0.1173701211810112 0.07634841650724411 -0.02612471394240856 -0.10310289263725281 0.0691462978720665 0.08066383004188538 0.0382215790450573 0.2477397471666336 0.03458627685904503 0.04016914591193199 0.03515730798244476 -0.15488171577453613 -0.07973013073205948 0.04293984919786453 0.026438936591148376 -0.09387432038784027 -0.029597381129860878 -0.12263402342796326 -0.1980123072862625 -0.051024291664361954 -0.17628230154514313 -0.006671937648206949 0.07205333560705185 0.071451835334301
would 0.024969954043626785 -0.3654266893863678 -0.00992635078728199 0.22118502855300903 -0.028477709740400314 0.13498781621456146 -0.06772597879171371 -0.30785366892814636 -0.23978805541992188 0.11018791794776917 -0.07224541902542114 0.09496849030256271 -0.015566897578537464 -0.044248566031455994 -0.06366570293903351 0.28134089708328247 0.02380235679447651 -0.285604864358902 0.01892145164310932 -0.01444951631128788 -0.13452886044979095 -0.02759663201868534 0.30538827180862427 0.17700129747390747 0.19277852773666382 0.12590284645557404 -0.06924090534448624 0.20137953758239746 -0.024998849257826805 0.15556786954402924 -0.06375595182180405 -0.11442337930202484 -0.1349983662366867 0.014175532385706902 0.03962577506899834 0.06258397549390793 0.16493336856365204 -0.3647409677505493 0.035919733345508575 0.1701703816652298 0.19172988831996918 0.03383711725473404 0.047483623027801514 0.12919628620147705 -0.15915800631046295 -0.24904398620128632 -0.15742269158363342 0.0070536769926548 -0.12239998579025269 0.12770113348960876 -0.0825124979019165 -0.164971262216568 0.18854820728302002 0.44857460260391235 -0.17762182652950287 0.131315216422081 0.08544912934303284 0.1458258330821991 0.06948699802160263 -0.24281182885169983 0.15902334451675415 0.18899869918823242 -0.17993372678756714 -0.12788096070289612 -0.11350883543491364 -0.056903086602687836 -0.020087283104658127 -0.17256391048431396 0.009195812977850437 -0.13871197402477264 0.06351723521947861 -0.013741650618612766 -0.21727530658245087 -0.04435171186923981 0.11175694316625595 -0.1027841866016388 0.2669428288936615 0.4573516547679901 -0.04503800719976425 0.11079604178667068 -0.4636162519454956 -0.056368015706539154 -0.2682994306087494 -0.3469449281692505 0.24653589725494385 0.16249795258045197 0.19893570244312286 0.10388324409723282 -0.1666889637708664 0.00841999240219593 0.2792727053165436 -0.16437982022762299 0.08014309406280518 -0.3985832631587982 0.008875010535120964 0.005448109470307827 -0.0460907518863678 -0.2668894827365875 -0.07156949490308762 0.14630594849586487
because 0.22069017589092255 0.2402341365814209 0.08353660255670547 -0.15118397772312164 0.21578636765480042 0.09344357997179031 -0.0443524606525898 0.027069080621004105 -0.1331382691860199 -0.183857262134552 -0.01282496377825737 0.0035194153897464275 -0.16287612915039062 -0.10656712204217911 -0.1005486249923706 -0.3321016728878021 -0.1719367504119873 -0.20831122994422913 -0.11407770961523056 -0.11006394028663635 -0.05197664722800255 -0.16889463365077972 -0.08007239550352097 0.15317998826503754 -0.22243182361125946 0.15919220447540283 0.12771737575531006 -0.015298508107662201 -0.08815751224756241 -0.05193983390927315 0.1950785368680954 0.12021870166063309 0.10158823430538177 0.21018703281879425 -0.15042997896671295 0.06926258653402328 0.06918039172887802 -0.19140230119228363 -0.1662779301404953 0.19130800664424896 -0.27493149042129517 0.07815263420343399 0.08909918367862701 0.0780271589756012 0.10407139360904694 -0.054885316640138626 0.008890165016055107 0.0014374378370121121 -0.16024187207221985 -0.02563074231147766 -0.14758731424808502 0.18389703333377838 0.11821305006742477 0.2741040587425232 0.016798945143818855 -0.15315328538417816 0.012481383979320526 0.0766468420624733 0.004133869893848896 0.14408020675182343 -0.020802535116672516 0.07579163461923599 -0.07454598695039749 -0.04078755900263786 0.05744833126664162 -0.02269991673529148 -0.06006583198904991 0.05687130242586136 0.02710215374827385 0.021620627492666245 -0.050730571150779724 -0.28689220547676086 -0.13644379377365112 -0.15491023659706116 0.15046876668930054 0.05094800144433975 -0.061461154371500015 -0.12871049344539642 -0.1260097324848175 -0.2699318826198578 0.18854358792304993 -0.07608902454376221 0.16360847651958466 -0.1962110549211502 -0.11561544239521027 -0.10546931624412537 -0.06296762079000473 -0.21134479343891144 -0.10998716950416565 0.0010154522024095058 0.158723384141922 -0.14682741463184357 -0.033294372260570526 -0.04543909803032875 -0.023901253938674927 0.08699963986873627 -1.3851257972419262E-4 -0.21480980515480042 0.17139728367328644 0.1778712123632431
state 0.4028185307979584 0.32823628187179565 -0.49556872248649597 0.16570918262004852 0.11651862412691116 -0.048098158091306686 -0.13428105413913727 0.1560354083776474 0.10545065999031067 0.0066944328136742115 -0.018060894683003426 0.12683948874473572 0.34528130292892456 0.029611099511384964 -0.04998946562409401 0.013283098116517067 0.3026123642921448 -0.07573844492435455 0.11277338862419128 -0.011509118601679802 -0.06375574320554733 -0.007401127368211746 -0.07362271845340729 0.13317136466503143 0.22949199378490448 0.06695353239774704 0.02566838450729847 -0.0946231484413147 0.2579081654548645 -0.014662155881524086 -0.21736031770706177 0.05620575323700905 0.12220649421215057 0.07409924268722534 0.2917882204055786 0.14460857212543488 0.11815904825925827 0.16781127452850342 0.09131579101085663 0.06084796041250229 -0.009264050051569939 0.08679612725973129 -0.005943917669355869 0.11181341856718063 0.03236795589327812 -0.0201815664768219 0.0831780731678009 0.0397413969039917 0.15564100444316864 0.11354266107082367 0.06999314576387405 -0.07399483770132065 0.021437479183077812 -0.11864190548658371 0.06401044875383377 -0.22690372169017792 0.014873652718961239 -0.23983249068260193 0.07354401051998138 -0.09065256267786026 0.15519976615905762 0.06838395446538925 0.03076910972595215 0.05120731517672539 0.23100346326828003 -0.06027228757739067 0.16726426780223846 -0.1473713219165802 -0.08426924794912338 0.05140860378742218 -0.035843778401613235 0.19190692901611328 -0.1498987227678299 0.006190842017531395 0.3666099011898041 0.08114376664161682 -0.10873520374298096 -0.11692056059837341 -0.029761120676994324 -0.012738926336169243 0.08547961711883545 0.04080944508314133 -0.13285131752490997 0.1798160821199417 -0.18630442023277283 -0.16876624524593353 -0.07980020344257355 -0.11995941400527954 -0.027385303750634193 -0.05380253866314888 0.01338280364871025 -0.18826629221439362 -0.015956023707985878 -0.0870877355337143 0.2118178755044937 -0.42093637585639954 0.019934047013521194 -0.008971993811428547 -0.051106177270412445 0.1755576878786087
they 0.04224124178290367 -0.2729531526565552 0.21054576337337494 0.18931201100349426 0.0023435549810528755 -0.04368852823972702 -0.10447429120540619 0.09121837466955185 -0.012750587426126003 -0.22407813370227814 0.3477427363395691 0.09598684310913086 -0.07787410169839859 -0.2070370316505432 0.133764386177063 0.3715304434299469 0.07080439478158951 0.2994794249534607 0.09099222719669342 -0.15627653896808624 -0.09993192553520203 0.10251300036907196 0.18938608467578888 -0.1339375525712967 0.24385802447795868 -0.22408409416675568 -0.014848378486931324 -0.10639814287424088 0.11445917934179306 -0.008425412699580193 0.015292826108634472 -0.2882560193538666 0.12127278745174408 -0.14113442599773407 0.26157909631729126 -0.19362767040729523 -0.3897324800491333 -0.14927008748054504 0.009796993806958199 -0.004858830012381077 -0.09801217168569565 -0.2078128308057785 -0.19229651987552643 0.12604427337646484 -0.1786935031414032 0.06673915684223175 -0.12468987703323364 -0.07517948746681213 -0.4842449426651001 -0.11317536234855652 -0.13361240923404694 -0.04785881191492081 0.4005089998245239 0.0010650132317095995 0.059833429753780365 0.001380216097459197 -0.036021605134010315 -0.25540804862976074 0.011826476082205772 0.06139950826764107 -8.353206212632358E-4 -0.07039802521467209 -0.0974031463265419 -0.1616622358560562 -0.2107774317264557 0.06921028345823288 -0.004654368851333857 0.059874024242162704 -0.01869134046137333 -0.08509309589862823 -0.30987560749053955 4.8244488425552845E-4 0.21585911512374878 0.018901590257883072 0.19405455887317657 -0.12384141236543655 -0.30316266417503357 -0.05044011026620865 0.05765114352107048 -0.11071323603391647 0.030301466584205627 0.16494886577129364 -0.2829543948173523 -0.003221222897991538 0.19468747079372406 0.0839155912399292 0.21178661286830902 -0.0014903536066412926 0.011294739320874214 0.0368041917681694 0.1945939064025879 0.17673145234584808 -0.23296530544757843 2.6073979097418487E-4 0.061077963560819626 -0.3034781217575073 0.20990459620952606 0.015925349667668343 -0.14517216384410858 0.0788889080286026
you 0.04662158340215683 -0.17358258366584778 0.08206772059202194 0.36593925952911377 -0.08556891232728958 0.2289705127477646 -0.23871535062789917 0.12442795932292938 -0.21892279386520386 -0.026677783578634262 0.21209681034088135 0.05503123626112938 0.22206176817417145 0.010676893405616283 0.08299984782934189 0.31427326798439026 -0.22320598363876343 0.21589550375938416 -0.08108831942081451 0.08198419958353043 0.01782199740409851 0.006975359749048948 0.042392127215862274 -0.037938278168439865 0.3636176288127899 0.14735229313373566 -0.0013080222997814417 -0.15573671460151672 0.1095123365521431 -0.09468301385641098 0.08406887948513031 -0.10944946110248566 -0.10128134489059448 -0.025871099904179573 0.2529468834400177 0.09189703315496445 -0.1490391492843628 0.049471840262413025 -0.0660402774810791 0.0037696969229727983 -0.019494984298944473 -0.1828591525554657 -0.17203335464000702 -0.2195061296224594 0.17719729244709015 -0.012632004916667938 -0.29996445775032043 -0.04425257816910744 -0.19385525584220886 -0.09069503098726273 0.09989959001541138 -0.0979899913072586 0.018681587651371956 0.32592615485191345 0.01103859581053257 0.14498338103294373 0.0778111144900322 -0.06102917343378067 -0.18404221534729004 0.19066333770751953 -0.061361804604530334 0.2728429138660431 -0.08380907028913498 -0.3348928689956665 -0.29522427916526794 0.14774182438850403 0.22797580063343048 0.042387574911117554 0.11328471451997757 -0.2197929322719574 -0.11033714562654495 0.14147068560123444 0.35382601618766785 -0.1054873839020729 -0.019527949392795563 0.13009494543075562 -0.24581435322761536 -0.3705652356147766 0.28698182106018066 -0.10985004901885986 0.15625672042369843 0.001263464568182826 -0.32476481795310974 0.1611746847629547 -0.20222817361354828 0.584801435470581 0.15650449693202972 -0.03421454876661301 0.03241599723696709 0.053562313318252563 0.3034001290798187 0.05714533105492592 -0.08644039928913116 -0.054128821939229965 0.03447960689663887 0.2798613905906677 0.3141828179359436 -0.1243695318698883 0.03310880810022354 -0.10640963912010193
$ 0.039158012717962265 0.029409516602754593 -0.02991502732038498 -0.002208019606769085 -0.03791414201259613 0.025501929223537445 0.018178889527916908 0.008489427156746387 0.03696315735578537 0.06285546720027924 -0.030818458646535873 0.009168507531285286 0.0039517940022051334 0.015658147633075714 -0.0016972232842817903 -0.011896108277142048 0.003202938474714756 -0.08367893844842911 -0.0315064862370491 -0.03677235171198845 -0.03470933064818382 -0.01491532102227211 -0.0012702788226306438 -0.02301521971821785 -0.012965073809027672 0.04864981397986412 0.009568813256919384 -0.002710767788812518 -0.01805739291012287 0.013404378667473793 -0.0034029309172183275 0.016577987000346184 -0.033424921333789825 -0.043569840490818024 0.02155132032930851 -0.022584836930036545 0.023609621450304985 -0.029781710356473923 0.024554723873734474 -0.009911124594509602 0.0043292585760355 -0.02486088126897812 0.004368194844573736 0.024252887815237045 0.012998861260712147 -0.018906651064753532 -0.04266227409243584 -0.017002282664179802 0.04197852686047554 -0.025316549465060234 0.003935384564101696 -0.0031143203377723694 -0.01893526315689087 -5.060173571109772E-4 0.006977131590247154 0.01598869264125824 -0.030375663191080093 -6.903968751430511E-4 0.001956260297447443 -0.01500687561929226 -0.015459226444363594 0.020370708778500557 -0.006053697317838669 -0.007101885974407196 -0.005632522515952587 -0.038729939609766006 -0.03716430068016052 0.008639090694487095 -0.02107793278992176 0.008254995569586754 -0.02990635111927986 0.02639649622142315 0.049486640840768814 0.048341263085603714 0.052003078162670135 0.02534138225018978 -0.011953692883253098 0.025177404284477234 -0.0032052164897322655 0.029148418456315994 0.016610266640782356 -0.0073067303746938705 0.0181066133081913 0.013716848567128181 -0.018332362174987793 0.0010598758235573769 -0.004862353205680847 -0.024422662332654 -0.014255660586059093 0.006761452648788691 0.006915442645549774 0.0017417962662875652 -0.024498213082551956 -0.02258877269923687 -0.02393484115600586 0.0110713429749012 -0.004572063684463501 -0.0043909866362810135 0.010909476317465305 0.014571567066013813
going -0.09544810652732849 0.1529851108789444 0.053091198205947876 -0.27589738368988037 -0.18404614925384521 0.04539666324853897 -0.2805681526660919 -0.3339695930480957 -0.08513657003641129 0.25624001026153564 -0.06723435968160629 -0.1633482724428177 0.010951233096420765 -0.3923165500164032 0.406838595867157 -0.04675452038645744 -0.5170011520385742 -0.08264867961406708 -0.3570284843444824 -0.09830360114574432 -0.1656482070684433 0.06812997907400131 0.05521596968173981 -0.25626495480537415 -0.0712980404496193 0.17169471085071564 0.27518466114997864 0.05587649717926979 -0.0740058496594429 0.2920137345790863 -0.08232835680246353 -0.08412101864814758 0.10889340192079544 -0.13111813366413116 -0.13869930803775787 -0.09281424432992935 0.05963410437107086 0.19672366976737976 -0.23122191429138184 -0.09979022294282913 -0.10506680607795715 0.1354004591703415 0.029581869021058083 -0.0386204794049263 0.6563123464584351 -0.21159157156944275 -0.5528715252876282 -0.34794551134109497 -0.2986471354961395 0.02652876265347004 -0.06722154468297958 -0.2462291568517685 0.017205804586410522 0.06421706825494766 0.27230942249298096 -0.39002227783203125 -0.11248735338449478 0.009344578720629215 -0.06696543842554092 -0.15126608312129974 5.006579449400306E-4 0.4053359031677246 0.1849551647901535 -0.03345581516623497 -0.33004674315452576 0.02289891242980957 0.059245601296424866 0.12919491529464722 0.1596321165561676 -0.3514360189437866 -0.23790159821510315 -0.052158620208501816 0.07140123844146729 0.06427991390228271 -0.3604174852371216 0.06754899770021439 -0.01541905291378498 0.5468857884407043 -0.216547891497612 -0.0787770226597786 -0.5098745226860046 -0.20518870651721954 -0.03401448205113411 -0.015471275895833969 -0.31800681352615356 0.17494572699069977 0.11630763858556747 0.264218270778656 -0.2084994912147522 -0.04573380574584007 0.3569307029247284 0.17305827140808105 -0.12174403667449951 0.13771885633468628 -0.16165901720523834 0.24234266579151154 0.16506540775299072 -0.17463523149490356 0.008693627081811428 0.2469778209924698
old 0.2888210117816925 0.16026091575622559 -0.3985990583896637 -0.23395219445228577 0.6346228718757629 -0.31105178594589233 -0.09512782841920853 0.016218110918998718 0.2769087553024292 0.22917456924915314 -0.20318640768527985 -0.024639511480927467 -0.2964256703853607 0.05887462571263313 -0.10598339885473251 0.1821245551109314 -0.13105334341526031 -0.16578856110572815 -0.18702095746994019 -0.4268633723258972 0.07838819921016693 0.24021978676319122 -0.16893370449543 -0.0770304799079895 0.08233112841844559 0.03975551202893257 0.0951593890786171 -0.1491992026567459 0.22963488101959229 0.14456892013549805 0.2046339213848114 -0.034378498792648315 -0.15139320492744446 -0.2791609764099121 -0.08528498560190201 0.07028346508741379 0.24671193957328796 0.4401419460773468 -0.02454601414501667 0.0508195161819458 0.2747865319252014 0.051678888499736786 -0.02701782062649727 -0.00550715159624815 0.07075637578964233 0.2827762961387634 -0.10594720393419266 0.003052812535315752 0.10537321865558624 -0.38768270611763 -0.00836995244026184 -0.17715510725975037 0.2309097796678543 -0.10011261701583862 -0.14721503853797913 -0.14914318919181824 -0.22403253614902496 0.2299366593360901 -0.04629930481314659 -0.0702541321516037 0.1878974586725235 0.41486966609954834 -0.23405878245830536 -0.03822675347328186 -0.057492855936288834 0.06961695104837418 0.15829965472221375 0.06814923137426376 -0.01726284623146057 0.12236788123846054 0.2973164916038513 -0.30562305450439453 0.044739529490470886 0.09774936735630035 0.3854233920574188 0.08546700328588486 -0.00986593496054411 0.13736844062805176 0.01996530592441559 -0.07745829224586487 -0.2522636651992798 -0.012667244300246239 -0.3517111539840698 -0.1557253897190094 0.1352289617061615 0.07243990898132324 -0.07956362515687943 -0.03125349059700966 0.04197331517934799 -0.0341973714530468 -0.35465407371520996 0.06603969633579254 0.08774635195732117 0.028289614245295525 0.1355220228433609 -0.007811250630766153 0.12078925967216492 0.06352914869785309 -0.13357679545879364 0.12512314319610596
want -0.36751967668533325 -0.24306271970272064 0.22500813007354736 -0.2717488706111908 -0.3985487222671509 0.3348725736141205 -0.08020415902137756 -0.08175905793905258 -0.1900772750377655 0.3278028666973114 -0.28585630655288696 -0.15574735403060913 0.30070003867149353 -0.2469598799943924 0.1251985877752304 0.027630802243947983 -0.40017277002334595 -0.41463878750801086 0.1411573886871338 -0.08571439981460571 -0.2562878429889679 -0.40830251574516296 0.42919591069221497 -0.14882124960422516 -0.003486388362944126 0.26368406414985657 -0.1649085134267807 0.25172513723373413 0.03608502447605133 -0.09604904055595398 0.3286043703556061 0.28404584527015686 0.011429035104811192 0.2755340337753296 0.34948670864105225 0.04605012759566307 -0.05437272787094116 -0.27718862891197205 -0.020327109843492508 0.1732049435377121 0.09535087645053864 0.14363442361354828 -0.0598485991358757 -0.10949282348155975 0.28823310136795044 -0.23130276799201965 -0.23744699358940125 -0.28326964378356934 0.02410067617893219 0.3449525535106659 0.2094079703092575 -0.2924368381500244 -0.05469370260834694 0.35725733637809753 -0.25529634952545166 0.010844804346561432 -0.08672865480184555 -0.23537561297416687 -0.027748122811317444 -0.12039047479629517 0.03023720532655716 0.17838817834854126 -0.010746566578745842 0.09116195142269135 -0.37177354097366333 0.05405636131763458 0.04773003235459328 -0.13064846396446228 -0.06834867596626282 0.1252724975347519 0.2333860546350479 -0.20165161788463593 -0.13361291587352753 -0.02174764685332775 -0.04071293771266937 0.1557830274105072 -0.18774676322937012 -0.049097929149866104 -0.2155521661043167 0.4182351529598236 -0.2539268732070923 -0.1155574843287468 0.07396814227104187 0.1530762016773224 0.20281146466732025 -0.1016472727060318 0.24653856456279755 0.03357898071408272 -0.1472267508506775 0.015151536092162132 0.14792245626449585 0.007353317923843861 -0.036386553198099136 -0.3403800129890442 0.09934833645820618 -0.19742579758167267 -0.249736949801445 0.2642442584037781 -0.19769273698329926 -0.18793576955795288
night -0.19335691630840302 0.0797545313835144 -0.029017671942710876 -0.05096195638179779 0.0626848042011261 -0.017481159418821335 -0.12006533890962601 0.03537251427769661 0.1374848484992981 -0.0326051190495491 -0.32795974612236023 0.06711789965629578 0.10269957780838013 0.14119690656661987 -0.3706328570842743 -0.2243811935186386 -0.1969483196735382 -0.35577455163002014 0.04404822364449501 0.3849169909954071 0.14173611998558044 -0.019123736768960953 -0.23807013034820557 0.003549010492861271 0.11659254878759384 0.24503162503242493 -0.24739620089530945 0.07916463166475296 -0.05216311663389206 -0.0771603211760521 -0.0779704749584198 0.09661979228258133 0.1283426135778427 0.043980762362480164 -0.03620312362909317 -0.2527106702327728 0.04449940100312233 0.14468419551849365 0.07742373645305634 0.055177245289087296 0.2864963114261627 -0.2283104956150055 0.376820832490921 -0.03148389607667923 0.2802732288837433 0.2484443634748459 0.18951384723186493 0.1438237428665161 0.21959610283374786 -0.09232104569673538 -0.1664484143257141 0.08433002233505249 0.19107666611671448 -0.28166189789772034 0.27090832591056824 -0.41206610202789307 -0.20718792080879211 -0.1620507687330246 -0.2465529441833496 0.2508074939250946 -0.07434835284948349 -0.28785473108291626 0.01821289397776127 -0.018312819302082062 0.3439387083053589 -0.025743916630744934 0.41207122802734375 -0.23227986693382263 0.050575654953718185 -0.10567139834165573 -0.06083811819553375 0.24213585257530212 0.08150585740804672 0.4212227761745453 0.06109398975968361 0.02391689643263817 0.4306052029132843 0.2619728446006775 0.0684456080198288 0.2899838387966156 -0.16810882091522217 0.032284531742334366 0.3274037837982178 -0.03747474402189255 0.2786969244480133 0.08064679801464081 0.021507853642106056 0.06776260584592819 -0.0418756827712059 0.26697424054145813 -0.16031740605831146 -0.05723370239138603 -0.08770175278186798 -0.187504380941391 0.10377722233533859 -0.20282354950904846 0.49554407596588135 0.03557182475924492 -0.14725786447525024 0.4543909430503845
them 0.30681321024894714 -0.26105302572250366 0.09222698956727982 0.06305216997861862 0.12175427377223969 0.22061777114868164 0.010171722620725632 0.17508356273174286 0.1529988795518875 -0.1479146033525467 -0.03787325695157051 0.022583166137337685 -0.12163852900266647 0.061931416392326355 0.1071983054280281 -0.07106725871562958 -0.019141923636198044 -0.17956538498401642 -0.06223797798156738 -0.21846771240234375 -0.029221871867775917 -0.16938914358615875 0.05068513751029968 0.08779529482126236 -0.1197214424610138 0.3316227197647095 -0.05186088755726814 -0.1275843381881714 -0.14239829778671265 -0.10254693776369095 0.13975252211093903 0.3447236120700836 0.3769872486591339 -0.03311193734407425 0.1553504317998886 -0.2234065681695938 0.017422128468751907 -0.35796529054641724 -0.12114503234624863 -0.24821734428405762 -0.17726659774780273 -0.3647829294204712 0.29786503314971924 0.1580219715833664 0.1197502464056015 -0.1344703882932663 -0.12193713337182999 0.03476310521364212 0.051767826080322266 0.10988704115152359 0.12848012149333954 0.1082138866186142 0.07123580574989319 0.1891605406999588 -0.21367166936397552 0.14315666258335114 -0.24300555884838104 0.05444223806262016 -0.21981516480445862 0.08903818577528 0.06136346235871315 0.17499957978725433 0.032318469136953354 -0.18837223947048187 -0.08993260562419891 -0.20740753412246704 0.10848940908908844 0.15014973282814026 -0.41522374749183655 0.06749939173460007 -0.2583473026752472 0.1383744478225708 0.1444089710712433 0.44680002331733704 0.062447015196084976 0.002934875199571252 -0.3950185775756836 0.20276685059070587 -0.2682315707206726 0.06224742531776428 0.08670951426029205 0.10576751083135605 0.021748650819063187 -0.10698962211608887 -0.20085547864437103 0.051520925015211105 -0.10703469067811966 -0.21353518962860107 0.05016634613275528 0.06782814115285873 0.12053453922271729 0.30428412556648254 -0.29215002059936523 -0.3153282105922699 0.11565566807985306 0.0996994897723198 -0.15370523929595947 -0.04784771427512169 0.25557559728622437 0.4433598220348358
then -0.1897888481616974 -0.09174501150846481 0.3934280574321747 0.08674190938472748 -0.005695490166544914 -0.01593846268951893 -0.0015255134785547853 -0.3273307979106903 0.0333353728055954 0.013911250978708267 0.1516226828098297 0.18978862464427948 -0.09326576441526413 -0.17997324466705322 -0.025809690356254578 -0.046663422137498856 0.05738568305969238 0.012926781550049782 -0.12139370292425156 0.1713956743478775 -0.11072143167257309 0.15698687732219696 -0.04188499227166176 -0.07648785412311554 0.1536785364151001 0.2366141825914383 -0.08913689106702805 0.11614347994327545 -0.08732965588569641 -0.05030715465545654 -0.1388271152973175 0.37592679262161255 0.13303379714488983 0.07612153142690659 0.2051871418952942 -0.18885506689548492 0.19476965069770813 -0.045427270233631134 0.02208126150071621 0.06565570831298828 -0.34682324528694153 -0.05617361143231392 0.04480176046490669 0.4336490035057068 0.0966465026140213 -0.11457376927137375 0.02865588665008545 0.2650975286960602 -0.241655632853508 0.11218510568141937 -0.007769197225570679 -0.023581411689519882 0.08945033699274063 -0.09156151115894318 0.14914990961551666 -0.22502540051937103 -0.10829035937786102 0.049141984432935715 -0.05676361173391342 0.17442204058170319 0.3023168444633484 0.17179790139198303 -0.012106522917747498 0.18137189745903015 0.09671159833669662 0.12226908653974533 -0.17037516832351685 0.034046053886413574 0.12047877162694931 -0.15199990570545197 -0.035632193088531494 -0.08867056667804718 -0.13482168316841125 0.08885135501623154 0.22565586864948273 0.004380698315799236 -0.40510374307632446 0.18218302726745605 0.047899361699819565 0.03785146400332451 -0.0014132102951407433 0.11149390041828156 0.21304211020469666 0.22929218411445618 -0.019512657076120377 0.11070678383111954 -0.030756410211324692 0.27239206433296204 -0.11061257123947144 0.15049363672733307 -0.27327683568000793 -0.09444599598646164 0.42335566878318787 0.13382339477539062 0.050387635827064514 0.03186046704649925 0.021507035940885544 0.10814065486192703 -0.05263234302401543 0.16963621973991394
court 0.11569090187549591 0.3678906559944153 -0.33205658197402954 0.04141638055443764 -0.025048553943634033 0.024856578558683395 -0.047582823783159256 -0.08927345275878906 0.07362711429595947 0.13113687932491302 -0.07587478309869766 -0.1528668850660324 0.21141478419303894 -0.02472751773893833 -0.23128700256347656 -0.23295751214027405 -0.16228830814361572 0.0013862624764442444 -0.15447387099266052 0.010345645248889923 -0.21763290464878082 -0.11425525695085526 0.011097271926701069 -0.057656195014715195 0.12217576801776886 0.11098937690258026 0.0929102897644043 -0.051146119832992554 0.01137378066778183 -0.1319192498922348 -0.17090922594070435 0.06753085553646088 0.08122849464416504 -0.20604124665260315 0.08800872415304184 0.057708483189344406 -0.01330622099339962 0.07628191262483597 0.18473248183727264 0.11881449818611145 0.08447561413049698 -0.08993290364742279 0.03909165784716606 0.09366986155509949 0.3507230579853058 -0.0019281150307506323 -0.05041620135307312 -0.0266738124191761 0.023007484152913094 0.009205819107592106 0.04602556303143501 -0.1738699972629547 -0.13981902599334717 -0.10959823429584503 0.09365459531545639 -0.2272738367319107 0.03240218013525009 -0.20721757411956787 0.09255755692720413 0.02367134392261505 0.03251853585243225 0.008433225564658642 0.047955114394426346 -0.037079259753227234 0.0871681198477745 -0.17777138948440552 0.07365129888057709 0.11698827892541885 0.10259445756673813 0.0032858627382665873 -0.20925027132034302 0.2060057371854782 -0.04232729226350784 0.02102336473762989 0.09893134236335754 0.07392533123493195 0.07074189186096191 0.017628038302063942 0.11356553435325623 -0.19450733065605164 -0.13854622840881348 0.018255358561873436 0.08131188899278641 0.1730373352766037 0.06659409403800964 -0.01806153543293476 -0.1278964728116989 -0.264149934053421 -0.25648483633995056 -0.09091565757989883 -0.11521688848733902 -0.1826474964618683 -0.05734200030565262 -0.08208739012479782 0.06711622327566147 -0.04220026358962059 0.19298212230205536 -0.029682399705052376 -0.27264469861984253 0.0938660129904747
an 0.10040833801031113 0.12890994548797607 -0.3934175968170166 -0.09710866212844849 -0.24059940874576569 -0.02519400604069233 -0.2197917401790619 0.30403536558151245 0.1562148928642273 0.008039074018597603 -0.08201558887958527 -0.061650268733501434 0.29886043071746826 0.15115047991275787 -0.16796185076236725 -0.01911269500851631 -0.11579130589962006 -0.3042996823787689 -0.013254310935735703 0.31547629833221436 -0.15145105123519897 0.1388641893863678 0.18850089609622955 0.1648378223180771 0.06451638787984848 0.15537655353546143 0.31977376341819763 0.12467272579669952 0.1171678900718689 0.24518193304538727 -0.011453606188297272 0.05574978142976761 -0.05015530437231064 -0.16250039637088776 3.2058777287602425E-4 -0.1988380253314972 0.23979784548282623 0.013340608216822147 -0.09406106919050217 0.001510552130639553 -0.05044103413820267 0.1769125610589981 -0.11192587018013 -0.23341023921966553 0.09876130521297455 0.061901550740003586 -0.03134389594197273 0.15220078825950623 0.09440099447965622 0.07630450278520584 0.3015933632850647 -0.005666685290634632 0.2971634566783905 -0.25181227922439575 0.2155763953924179 -0.1468387395143509 -0.07180581986904144 -0.031027797609567642 -0.05260792747139931 0.11197962611913681 -0.060178376734256744 0.1814611703157425 -0.18997244536876678 -0.11674939841032028 -0.047692276537418365 -0.07675059884786606 0.13637296855449677 0.06896733492612839 0.02980303019285202 0.13076570630073547 -0.12218767404556274 0.06765734404325485 -0.027422606945037842 0.2138826847076416 0.04323156177997589 0.2590124011039734 -0.11404342204332352 0.005837769713252783 -0.2126975953578949 0.1752648949623108 -0.11292948573827744 -0.12288158386945724 -0.20899006724357605 0.13675111532211304 0.028533264994621277 -0.05941466987133026 0.015612440183758736 -0.09563298523426056 -0.04816918820142746 0.15310145914554596 -0.32003694772720337 -0.08826784044504166 0.19265234470367432 0.16913963854312897 0.08576581627130508 0.12129374593496323 0.12275867164134979 0.21144485473632812 0.012506000697612762 0.3531278669834137
- 0.09107446670532227 0.09885273873806 -0.013994081877171993 0.06675783544778824 0.052202172577381134 0.044927701354026794 0.057472676038742065 0.047347426414489746 0.03754114359617233 -0.2081385850906372 -0.04835532605648041 -0.013900320045650005 0.02129383757710457 0.06099384278059006 0.008138398639857769 0.04420054703950882 -0.00653638644143939 -0.13049550354480743 -0.02621513232588768 0.03316493332386017 0.028728429228067398 0.02383878082036972 0.015532149001955986 0.006343222223222256 0.05080495774745941 0.11055880784988403 0.052313584834337234 0.05680709704756737 -0.05899950861930847 0.03534430265426636 -0.0714048519730568 0.08917667716741562 0.06391310691833496 0.00887000747025013 -0.07350456714630127 -0.015053953975439072 0.1071605235338211 0.08630114793777466 0.0604901947081089 0.10481490939855576 0.0021216366440057755 0.007095793262124062 -0.02618386596441269 0.0012561599723994732 -0.0713697224855423 0.10281717777252197 0.06334198266267776 0.06260066479444504 -0.032692309468984604 0.030009746551513672 0.05136650428175926 0.04651827737689018 0.12974393367767334 -0.1653059720993042 0.02183147333562374 -0.11753976345062256 -0.05798201635479927 0.12375782430171967 0.08632058650255203 -0.08104031533002853 -0.00624969182536006 -0.016865942627191544 0.04605090245604515 -0.037595976144075394 0.05901661515235901 -9.130497928708792E-4 0.09854947030544281 0.09069555252790451 -0.0033253286965191364 0.02274889312684536 0.0010428756941109896 0.12219543755054474 0.018969649448990822 0.09657975286245346 -0.01457295659929514 -0.002098474884405732 -0.08595425635576248 -0.018770908936858177 -0.05116172507405281 0.07613204419612885 0.04321710765361786 -0.03183579444885254 0.08119566738605499 0.04549387842416763 -0.022110581398010254 -0.0685262531042099 -0.03389018028974533 -0.03866008669137955 0.04702630266547203 0.058630455285310745 0.029982300475239754 0.06744999438524246 0.08967266231775284 0.10100974142551422 -0.036489348858594894 -0.13915157318115234 0.08259613066911697 0.03675171360373497 0.02254032902419567 0.08384504914283752
each 0.022909408435225487 -0.049080777913331985 0.16529788076877594 -0.08236202597618103 -0.3128339648246765 0.05638715252280235 0.39392539858818054 0.09284920245409012 0.2600598633289337 0.04268775135278702 -0.4550591707229614 -0.24416865408420563 0.061192285269498825 0.15074798464775085 -0.1685531884431839 -0.25256672501564026 0.34885677695274353 -0.4611318111419678 0.1820007860660553 -0.23357337713241577 -0.23239673674106598 -0.6100388765335083 0.04293577000498772 0.03495601937174797 -0.02820534259080887 -0.26420238614082336 0.03666246682405472 0.24472765624523163 0.21006928384304047 0.3621807098388672 -0.10895814746618271 0.35228145122528076 -0.14485110342502594 -0.20964080095291138 0.3634367287158966 -0.40623241662979126 0.2000579535961151 -0.024499792605638504 -0.023604976013302803 -0.35490670800209045 0.26537713408470154 -0.17338870465755463 0.16769057512283325 0.005737548694014549 0.12940427660942078 0.224811390042305 -0.08045525848865509 0.14149586856365204 0.06745597720146179 -0.08288385719060898 -0.09154543280601501 0.2487468272447586 0.1530769169330597 -0.05674121156334877 0.048251792788505554 -0.05798862501978874 -0.1405584067106247 0.04551318287849426 -0.012413849122822285 0.059514597058296204 0.2525480091571808 0.05985955521464348 -0.1649135798215866 -0.3618735373020172 -0.2567984461784363 -0.4339217245578766 -0.16259819269180298 -0.0669383853673935 -0.19342076778411865 0.10728427767753601 -0.23828184604644775 0.38306868076324463 0.4183175265789032 0.6651470065116882 0.12574177980422974 -0.16672468185424805 -0.4669828712940216 0.17305752635002136 0.0760025754570961 0.3435264527797699 0.051212556660175323 0.09132185578346252 0.16417847573757172 -0.03901116922497749 -0.22053471207618713 0.07468242198228836 0.007715950720012188 -0.19034068286418915 -0.30105113983154297 0.06849691271781921 0.6127651333808899 -0.1421709954738617 -0.15162384510040283 -0.32506224513053894 0.0942884087562561 0.11626620590686798 -0.16927820444107056 0.11706499755382538 0.10374417901039124 0.2900683283805847
former 0.07930944859981537 0.12387257069349289 -0.1469946652650833 0.013977824710309505 0.07828208804130554 -0.08036980032920837 0.03180482238531113 0.06823170185089111 0.04251660406589508 0.004010864999145269 -0.005213712342083454 0.01464567519724369 0.04164164140820503 0.10553211718797684 -0.01622115820646286 -0.004097116645425558 0.03177828714251518 -0.01813332363963127 0.03422907367348671 0.018488815054297447 0.044221796095371246 0.00789351761341095 -0.06475076079368591 0.00792628899216652 0.02263719215989113 0.00966649129986763 0.055672112852334976 1.2885406613349915E-4 0.04194103553891182 -0.03458334505558014 -0.03256949782371521 -0.03075537644326687 0.002084273612126708 -0.022197997197508812 0.007609773427248001 0.03620314970612526 0.0962849110364914 0.0766860619187355 0.07135862112045288 0.014998669736087322 0.0064693535678088665 -0.005256638862192631 0.0240299254655838 0.02300572767853737 0.011168235912919044 0.06673434376716614 0.06877481937408447 0.015880607068538666 0.08942346274852753 0.03301488235592842 0.040883660316467285 -0.04031476005911827 -0.012765144929289818 -0.09106526523828506 -0.02062920108437538 -0.08732793480157852 0.005118887405842543 1.3533118180930614E-4 0.013791865669190884 -0.05578109249472618 0.0725850984454155 -0.007398415356874466 -0.0014671607641503215 0.009471256285905838 0.0475219301879406 -0.021218417212367058 0.11517206579446793 -0.005976569838821888 -0.020563460886478424 0.013828927651047707 0.016954004764556885 -0.0021041829604655504 -0.04762106016278267 0.006811806466430426 0.037791699171066284 -0.025838959962129593 0.017567850649356842 0.01669728197157383 0.015981052070856094 -0.003972883336246014 0.02199319191277027 0.04085236042737961 0.0014571661595255136 0.06156644970178604 -0.01885032095015049 -0.054117731750011444 -0.02817046269774437 -0.05509727820754051 -0.020027045160531998 -4.419764445628971E-4 -0.028572361916303635 -0.05287459120154381 -0.0027065384201705456 0.015072669833898544 0.0010018693283200264 -0.10120228677988052 0.018024226650595665 -0.028852052986621857 -0.05363365262746811 0.05004984512925148
as 0.31736496090888977 -0.11096165329217911 0.0221051387488842 -0.004399331286549568 0.11608949303627014 -0.05256718397140503 -0.050986867398023605 0.21079522371292114 -0.2233010083436966 0.10993197560310364 0.06354636698961258 0.2748531401157379 -0.17373323440551758 -0.31358423829078674 -0.01083926111459732 0.06348888576030731 -0.18963631987571716 -0.5487330555915833 0.12213055789470673 0.11729584634304047 -0.037112053483724594 -0.2151598334312439 0.49609726667404175 0.4114209711551666 -0.2618664801120758 0.05352378264069557 -0.061102695763111115 -0.07951456308364868 -0.006865848321467638 0.04256518557667732 -0.15681281685829163 -0.04674418643116951 -0.02719501592218876 -0.03703499585390091 -0.32097235321998596 -0.02522481232881546 -0.18004854023456573 -0.118727907538414 0.12659700214862823 -0.14013107120990753 0.015097682364284992 -0.32130658626556396 -0.11022309958934784 -0.31421563029289246 0.29880931973457336 0.42349377274513245 0.1137644425034523 -0.4846118688583374 0.03547319024801254 -0.01830313540995121 -0.11569640040397644 0.10788259655237198 -0.3868241608142853 -0.03365197032690048 -0.06662508845329285 0.11442636698484421 -0.31930312514305115 0.02623901516199112 -0.15897656977176666 0.0037552539724856615 0.30426546931266785 -0.20908011496067047 -0.4117293357849121 0.08625134080648422 -0.19272367656230927 0.17992441356182098 -0.017472965642809868 -0.3267359137535095 0.08888164162635803 -0.12320687621831894 0.19288118183612823 -0.29593536257743835 0.3373720049858093 -0.13798020780086517 0.11508028209209442 -0.08138135075569153 0.0295370202511549 -0.05661579966545105 -0.01904534175992012 -0.08593399077653885 0.6085848212242126 -0.24737028777599335 0.35465794801712036 -0.08059437572956085 -0.05045720934867859 0.19866928458213806 0.17024193704128265 -0.08402180671691895 0.1645989716053009 -0.06852711737155914 0.1530786156654358 0.09586071223020554 0.014996826648712158 0.1459854692220688 0.15759235620498657 -0.3509334325790405 0.48655441403388977 0.213983952999115 0.4170037508010864 0.2391781359910965
at 0.24735791981220245 0.37377479672431946 0.14470253884792328 -0.49916473031044006 0.5039384961128235 -0.286435067653656 0.02863805554807186 0.4179321825504303 -0.006215392146259546 -0.13861306011676788 0.27081868052482605 -0.1782699078321457 -5.328166298568249E-5 -0.02056470885872841 0.0795850083231926 -0.38978368043899536 0.00846300832927227 0.07321736961603165 -0.3144362270832062 0.14884451031684875 0.041384369134902954 -0.1343320608139038 0.07320082187652588 0.25243300199508667 -0.07623849809169769 -0.162247434258461 0.08478809893131256 0.08888853341341019 -0.30671367049217224 -0.5153132677078247 -0.00891148205846548 -0.07074922323226929 0.23229427635669708 0.02918432280421257 -0.1805088073015213 -0.089795783162117 0.2562016546726227 0.023193364962935448 0.03439374640583992 0.04991920292377472 0.2560112178325653 -0.21815939247608185 0.12495358288288116 -0.07459195703268051 0.026287324726581573 -0.15774254500865936 -0.06366990506649017 0.13306571543216705 -0.042526133358478546 0.04374219477176666 -0.10927946865558624 -0.02480362355709076 0.46631792187690735 -0.13335244357585907 -0.14495748281478882 -0.18189048767089844 -0.2812245190143585 -0.23305466771125793 -0.09681981801986694 -0.12241988629102707 0.05136823281645775 -0.02518831379711628 -0.032666780054569244 -0.19665810465812683 -0.06428737938404083 -0.21359068155288696 -0.1037469133734703 -0.34499239921569824 -0.1430194228887558 0.2566392421722412 -0.38061845302581787 0.09466478228569031 -0.024443181231617928 0.44089752435684204 -0.007077517919242382 -0.1361304223537445 -0.3245928883552551 0.4468512535095215 -0.3697632849216461 0.18883685767650604 -0.08547278493642807 -0.13647562265396118 0.2028689682483673 -0.09442219883203506 0.20916417241096497 0.17326165735721588 -0.01810726523399353 -0.13071274757385254 0.25810790061950684 -0.15687289834022522 -0.06741557270288467 -0.40549182891845703 0.1042328029870987 -0.0631880834698677 0.05666578561067581 -0.16746866703033447 0.41657158732414246 -0.07048636674880981 -0.200376957654953 -0.29824674129486084
left 0.19614455103874207 0.5798032879829407 -0.20020267367362976 0.044114742428064346 0.236860990524292 -0.013842694461345673 0.0805891826748848 -0.0954466313123703 -0.1634569615125656 -0.19565655291080475 0.20030400156974792 0.23904931545257568 -0.19044405221939087 0.27517762780189514 0.01929955556988716 0.09831428527832031 -0.01825568452477455 -0.11512775719165802 0.03282054513692856 -0.23079971969127655 -0.05137300118803978 0.31238770484924316 0.002005946356803179 -0.15410691499710083 -0.35435259342193604 0.3048059344291687 -0.13884474337100983 0.16440655291080475 -0.08977699279785156 -0.06378941237926483 -0.306257426738739 0.26125413179397583 -0.09255484491586685 -0.16244229674339294 -0.05429147928953171 0.15219172835350037 0.1321122795343399 0.05493563041090965 0.22058475017547607 0.12206173688173294 0.007339667063206434 0.09604748338460922 -0.17631983757019043 0.08919867873191833 6.454982794821262E-4 -0.028508087620139122 -0.033909544348716736 0.054797831922769547 0.2566058933734894 0.04353448748588562 -0.12728069722652435 -0.0391739085316658 0.20047202706336975 -0.09656040370464325 -0.0684148445725441 0.08721629530191422 0.032884761691093445 0.24068693816661835 -0.021282833069562912 -0.051181331276893616 0.016288459300994873 0.27989891171455383 -0.2783370018005371 -0.1942921131849289 0.21101397275924683 -0.2229454517364502 -0.04103364050388336 0.2563462555408478 0.048934876918792725 0.09845566004514694 -0.2031945437192917 0.10285235941410065 0.12601473927497864 0.340657502412796 0.14864318072795868 0.06077147647738457 -0.21575652062892914 0.20382648706436157 -0.13020269572734833 -0.07835227251052856 -0.033765241503715515 -0.05300208553671837 0.051195450127124786 -0.0019200872629880905 0.12230923771858215 0.015986448153853416 -0.2728552222251892 0.06209944561123848 0.04283978044986725 -0.2584553062915802 -0.15240569412708282 -0.004048689268529415 0.09195514023303986 0.1080000028014183 -0.12524423003196716 -0.03369409590959549 -0.10820672661066055 -0.3669182062149048 -0.012980923987925053 0.15653465688228607
much 0.359306663274765 -0.19604282081127167 -0.01464385911822319 0.07401146739721298 0.07678719609975815 0.057194456458091736 0.02798657864332199 -0.3474913537502289 0.1264457404613495 -0.0783999040722847 -0.10415042191743851 -0.28720566630363464 -0.29481780529022217 0.0778571367263794 -0.269354909658432 -0.19161371886730194 -0.06517735868692398 0.18012559413909912 0.062447842210531235 -0.40074652433395386 -0.22135569155216217 0.044244490563869476 0.13272149860858917 0.2504914402961731 -0.08649130165576935 0.1828494668006897 -0.4257394075393677 -0.2414788156747818 0.33033287525177 0.3102262020111084 0.4117582440376282 0.2875412106513977 -0.12571893632411957 -0.014540793374180794 -0.15509453415870667 0.11850957572460175 0.03353910520672798 -0.06930763274431229 -0.21734833717346191 0.16621512174606323 0.4909682273864746 0.011828991584479809 0.02568906918168068 -0.2051633596420288 -0.4775470197200775 0.15516245365142822 -0.4594193398952484 -0.30764052271842957 -0.18351712822914124 -0.002419854048639536 -0.07177849858999252 0.23478159308433533 0.5743001699447632 0.13649946451187134 0.06406214088201523 0.26012131571769714 -0.03762795031070709 0.18745402991771698 -0.28282037377357483 0.1811496764421463 -0.5627118349075317 0.228563129901886 0.20061802864074707 -0.06768236309289932 0.24276171624660492 -0.07023268193006516 -0.006733426824212074 0.3166007697582245 -0.15545856952667236 0.01793677732348442 0.1660069227218628 -0.23424537479877472 0.35861313343048096 0.0767487958073616 0.23985080420970917 -0.09787409007549286 -0.15207509696483612 -0.20703399181365967 -0.09116946905851364 -0.2205525040626526 -0.031163664534687996 -0.07800164073705673 -0.34991884231567383 0.22855989634990692 0.2684469223022461 -0.26487502455711365 0.09690692275762558 -0.18856827914714813 -0.3383621275424957 0.5267183184623718 0.023953476920723915 0.06571858376264572 0.08240097016096115 -0.027427827939391136 0.0394107885658741 0.5774639844894409 -0.17196935415267944 -0.252310574054718 0.5381810069084167 -0.06143197789788246
be 0.29505032300949097 0.16756601631641388 0.029847661033272743 0.039988309144973755 -0.18834057450294495 0.26527640223503113 -0.02099285088479519 0.07573428004980087 0.10792059451341629 -0.34197163581848145 0.35266342759132385 0.05504783242940903 0.039487920701503754 0.032061923295259476 -0.05045025423169136 -0.263295441865921 -0.42687106132507324 -0.1890801638364792 0.20603902637958527 0.2730478048324585 -0.14630331099033356 -0.08710028231143951 0.35949674248695374 0.3992840051651001 -0.25683116912841797 -0.2595261037349701 -0.023347407579421997 -0.24282893538475037 2.0862789824604988E-5 -0.2292666733264923 0.045123711228370667 -0.023130901157855988 0.21196497976779938 -0.2557902932167053 -0.4358474612236023 0.08374903351068497 -0.11399011313915253 0.031073953956365585 0.06593119353055954 0.07513760030269623 -0.2794131636619568 0.3342079520225525 -0.351357102394104 -0.018402235582470894 -0.11238029599189758 -0.3141998052597046 0.012360680848360062 -0.11731705069541931 0.2101353406906128 0.011942807585000992 0.014927349984645844 0.19144591689109802 -0.09095964580774307 -0.19599649310112 0.040596671402454376 0.33688631653785706 0.03399008885025978 -0.07655243575572968 0.06685055792331696 0.05326426401734352 -0.06871791183948517 0.018430689349770546 0.0984894260764122 -0.12362489104270935 0.17239254713058472 -0.43789833784103394 0.167827770113945 -0.3985044062137604 -0.22610510885715485 -0.04138834401965141 -0.20358756184577942 0.12069057673215866 0.18234917521476746 -0.3193487823009491 -0.04973649978637695 -0.07873682677745819 -0.07395254075527191 -0.11786533147096634 0.11557788401842117 -0.26321595907211304 -0.05728636309504509 -0.16051723062992096 -0.2933370769023895 -0.36044996976852417 -0.016049344092607498 0.08649267256259918 -0.14556251466274261 0.04779240861535072 -0.0012283538235351443 0.027690481394529343 -0.2599228024482727 0.030935507267713547 -0.05702323094010353 -0.13184404373168945 0.12889033555984497 0.09068228304386139 -0.09345705062150955 -0.09589071571826935 -0.2932029068470001 0.3306175768375397
another -0.010044832713901997 0.30411484837532043 0.027778392657637596 0.20761138200759888 0.030115755274891853 0.4270225763320923 0.3116142153739929 -0.0895974338054657 0.0813124030828476 0.00843342300504446 -0.03619580343365669 -0.2774188816547394 0.34172728657722473 0.3271693289279938 -0.32205623388290405 -0.09265317767858505 -0.09567052870988846 -0.1923588663339615 0.1718791276216507 -0.0513606034219265 0.1810775250196457 0.16945673525333405 0.14888297021389008 -0.05149882286787033 0.23629224300384521 -0.08975083380937576 0.13519591093063354 -0.10388825088739395 -0.0035669878125190735 -0.10188091546297073 0.06984379142522812 0.4889298677444458 -0.24660608172416687 -0.2058660238981247 0.05062013491988182 -0.12251810729503632 0.3032432496547699 -0.03896859288215637 -0.009474758058786392 -0.03148732706904411 -0.08324985951185226 0.071623295545578 0.032399389892816544 -0.0601680688560009 0.025390494614839554 -0.14742225408554077 0.2157713919878006 0.4294985234737396 -0.023256588727235794 0.15746797621250153 0.06503298133611679 0.03667788580060005 -0.08417967706918716 -0.14976894855499268 0.09721160680055618 -0.1982470005750656 -0.05377700552344322 -0.07558921724557877 -0.16407473385334015 0.024724557995796204 -0.15009625256061554 -0.05815162882208824 -0.23639242351055145 0.14505931735038757 -0.2556799054145813 0.3767257034778595 0.08722235262393951 0.07449968159198761 0.02814381942152977 -0.09434792399406433 -0.3761902451515198 0.10945218801498413 -0.07090660184621811 -0.2353563755750656 -0.006948049645870924 -0.22858425974845886 -0.09841327369213104 0.2272893488407135 0.06650256365537643 0.2669583559036255 0.33320996165275574 0.169923335313797 -0.20021963119506836 -0.33029499650001526 0.04722778871655464 0.1876501739025116 -0.010471760295331478 0.22877460718154907 0.16973605751991272 0.17192071676254272 -0.48782265186309814 0.08430258184671402 -0.03129244223237038 0.08454959094524384 -0.18539050221443176 0.32739686965942383 0.19573192298412323 9.562235791236162E-4 0.1430787593126297 0.3960433304309845
two 0.11527497321367264 0.5071982145309448 -0.364275187253952 0.5578827261924744 0.24642439186573029 0.41663238406181335 0.44119346141815186 -0.040147919207811356 0.03975696489214897 -0.13436317443847656 0.2856155335903168 -0.07142725586891174 -0.2146194577217102 0.08338126540184021 0.10597500950098038 0.1071414202451706 0.08404048532247543 -0.33830857276916504 0.11708194762468338 -0.19695709645748138 0.1529020369052887 -0.035923026502132416 0.12914560735225677 0.1472795456647873 0.2527546286582947 0.28922557830810547 -0.19046130776405334 -0.20677845180034637 -0.19486111402511597 0.08512378484010696 -0.09821945428848267 0.2230176478624344 -0.09248314052820206 -0.18384885787963867 -0.08742871135473251 -0.3853081464767456 0.2792673707008362 -0.012033335864543915 0.5827703475952148 -0.09135031700134277 0.2852119207382202 0.36882948875427246 0.09588233381509781 0.3531835973262787 0.0751909464597702 0.3052697777748108 0.10273561626672745 0.46470698714256287 0.1531103104352951 -0.2694922685623169 -0.18258576095104218 -0.1531749665737152 0.2544465959072113 -0.2622435390949249 -0.18887412548065186 -0.17526806890964508 -0.105352021753788 0.10715457797050476 -0.06283602863550186 -0.14574863016605377 0.14600703120231628 0.051608145236968994 -0.07229164987802505 -0.34705445170402527 0.11294189840555191 -0.011302892118692398 -0.11735714972019196 0.4858572483062744 0.14996854960918427 -0.006521136499941349 -0.20467154681682587 0.40526098012924194 0.6508107781410217 0.4519213140010834 0.04060038924217224 -0.18454380333423615 -0.16844767332077026 0.12395567446947098 -0.09703096002340317 0.01794074848294258 -0.09286603331565857 0.023387257009744644 0.5812767744064331 -0.09876904636621475 -0.3341658115386963 0.26111918687820435 -0.23241078853607178 0.00468295207247138 0.1358691155910492 -0.08434076607227325 -0.2662360668182373 0.16803482174873352 0.26009464263916016 0.14865151047706604 -0.234999880194664 -0.29117345809936523 0.3007424771785736 -0.32517775893211365 -0.2673187255859375 0.17274132370948792
long -0.13600242137908936 -0.20411746203899384 -0.4351757764816284 -0.24042995274066925 0.14430612325668335 0.1244535744190216 -0.26312124729156494 -0.21837686002254486 0.5270195007324219 -0.12014047056436539 -0.6076985001564026 -0.3485928773880005 -0.6302779912948608 -0.12564292550086975 -0.4881008267402649 -0.1267349123954773 -0.16802966594696045 -0.34073811769485474 0.36527949571609497 0.08464426547288895 0.12823203206062317 0.20173852145671844 0.2654779553413391 0.33272585272789 0.01240006648004055 0.1255578249692917 -0.04362627863883972 -0.3998340666294098 0.05366399139165878 0.26928550004959106 -8.358039194718003E-4 -0.4667074978351593 0.22104622423648834 -0.2834089696407318 -0.2332182675600052 -0.3518548607826233 -0.08220061659812927 0.3396778404712677 -0.28279930353164673 0.1458645910024643 0.14592570066452026 0.04606630653142929 -0.142168790102005 -0.2143741101026535 -0.4503145217895508 0.2112901657819748 -0.07530257105827332 0.12197630852460861 0.28950682282447815 0.1806589663028717 -0.36650383472442627 -0.1907670646905899 0.6928977370262146 -0.45564281940460205 0.32698091864585876 0.2848842442035675 0.23940333724021912 0.06566911190748215 -0.2990657091140747 0.19467784464359283 0.04566481336951256 0.13507071137428284 0.1883898675441742 0.18548353016376495 0.21449270844459534 0.061603695154190063 0.2747943103313446 0.36958572268486023 0.550254225730896 -0.036996763199567795 -0.5175739526748657 0.21381787955760956 0.2714618444442749 -0.347175270318985 -0.11556137353181839 -0.30476251244544983 0.5075296759605408 0.20018956065177917 -0.3065797984600067 -0.09245699644088745 -0.23395779728889465 -0.3658801019191742 -0.5428322553634644 -0.22971831262111664 0.27881619334220886 0.15332895517349243 -0.0566096231341362 -0.18604467809200287 0.13389767706394196 0.2303905338048935 -0.4161466658115387 0.22472749650478363 -0.11670030653476715 0.1520167738199234 -0.09824733436107635 0.35910019278526306 0.4769449830055237 -0.028088394552469254 0.2060461789369583 -0.07545045018196106
how 0.16389590501785278 -0.19837427139282227 0.07031950354576111 0.07052403688430786 0.0910031795501709 0.19526523351669312 0.14547300338745117 0.10178616642951965 0.047881118953228 0.011300388723611832 -0.004196740221232176 0.10651583224534988 0.07849254459142685 -0.18664966523647308 0.27813565731048584 0.04534675553441048 0.0723545178771019 -0.0673418715596199 -0.13413071632385254 0.09259487688541412 -0.11345996707677841 -0.2822491526603699 0.20825977623462677 0.2562597095966339 -0.22757066786289215 0.015917710959911346 0.17509931325912476 0.03760761395096779 0.2823176383972168 0.10580231249332428 0.04103909805417061 0.2972560226917267 -0.2760803997516632 0.3035070300102234 0.07108857482671738 -0.09314468502998352 -0.42459407448768616 0.1488724797964096 -0.3162529766559601 -0.17660114169120789 -0.21867716312408447 -0.22505256533622742 -0.035511888563632965 -0.1864447146654129 0.5593358278274536 0.3175455331802368 -0.08124715089797974 -0.1876177191734314 0.17086349427700043 0.16683204472064972 -0.3043280243873596 0.1903674155473709 0.13865388929843903 0.02903382107615471 0.1441413015127182 0.3463818430900574 -0.28655704855918884 -0.03930772468447685 0.1908634752035141 0.32883739471435547 0.3753100037574768 -0.05069581791758537 -0.08102191239595413 0.3290964365005493 0.04336195066571236 0.11783282458782196 -0.016222545877099037 -0.10864417999982834 0.3407254219055176 -0.1921161264181137 0.25932109355926514 -0.09912878274917603 0.009241188876330853 0.046529632061719894 0.09861472249031067 0.09798342734575272 -0.10316046327352524 -0.04419580474495888 -0.15885388851165771 0.29206693172454834 0.29307013750076294 -0.14606188237667084 0.38128161430358887 0.2966924011707306 -0.2595599889755249 -0.09600535780191422 0.3390348553657532 0.18295636773109436 -0.16827113926410675 0.23870520293712616 0.2839433550834656 0.046560756862163544 0.5405582189559937 0.05852403864264488 0.3160006105899811 -0.06963410973548889 0.08738472312688828 0.17908641695976257 0.31126710772514343 0.13532625138759613
into 0.12320221960544586 0.1760861724615097 -0.12363499402999878 -0.0946527048945427 -0.2583582103252411 0.12346627563238144 -0.019103562459349632 0.13329929113388062 0.07245676964521408 0.34619268774986267 -0.18503423035144806 -0.08067541569471359 0.07576531916856766 0.04068274423480034 -0.12543490529060364 -0.2848851978778839 -0.04902185499668121 -0.17581745982170105 -0.2581949830055237 0.1368653029203415 -0.155437633395195 0.09624677151441574 -0.062588632106781 -0.10593020170927048 0.24749496579170227 0.15443886816501617 -0.08334431052207947 0.08609440177679062 -0.21223367750644684 -0.11873126775026321 0.11683344841003418 -0.14272965490818024 -0.14432772994041443 0.14045530557632446 0.04956786707043648 -0.32364362478256226 -0.2409590780735016 -0.07839801162481308 -0.2571374475955963 -0.008274996653199196 0.08668514341115952 -0.017706885933876038 -0.02386166714131832 -0.08346577733755112 0.13375888764858246 -0.12454565614461899 0.07290110737085342 0.07595889270305634 -0.022859031334519386 -0.229081928730011 -0.1942172348499298 0.09323756396770477 -0.0607769750058651 -0.09009459614753723 -0.026764126494526863 0.22415509819984436 -0.2228909432888031 -0.054352570325136185 -0.24359042942523956 0.3557461202144623 0.18974551558494568 -0.026089776307344437 0.013409296050667763 -0.024108821526169777 -0.03161986917257309 0.1466248333454132 -0.0999739021062851 -0.07251524925231934 0.05297788232564926 -0.05694227293133736 -0.10552158951759338 0.07359600067138672 -0.1684829443693161 -0.10758116841316223 0.25888365507125854 0.17150786519050598 0.11646389216184616 0.06835570186376572 0.06085860729217529 0.14843858778476715 0.10315270721912384 0.045071400701999664 0.12350401282310486 0.2054157257080078 0.02837851457297802 0.16502290964126587 -0.04415593296289444 0.11492353677749634 0.13839828968048096 0.07374247163534164 -0.26134568452835083 0.038558632135391235 0.0602714903652668 -0.10603892058134079 0.11891261488199234 -0.03225838020443916 0.06954255700111389 0.2559083104133606 -0.07846319675445557 -0.02468147687613964
see -0.04483881965279579 -0.0750703439116478 -0.057359933853149414 -0.10393308103084564 -9.693317115306854E-4 0.45435279607772827 -0.04182682931423187 -0.3150768578052521 -0.16180524230003357 -0.005235563963651657 0.011834494769573212 0.01736864075064659 -0.02016320452094078 -0.10829483717679977 -0.09648869931697845 -0.055422913283109665 0.01841488666832447 -0.424202024936676 -0.06682386994361877 0.07138483226299286 -0.22447770833969116 0.056463684886693954 0.02828911505639553 -0.08670036494731903 0.15590016543865204 0.11310990154743195 -0.07831226289272308 -0.06826402992010117 -0.19601723551750183 0.10659134387969971 0.19291648268699646 0.10836026072502136 0.21502871811389923 -0.1018817275762558 -0.07226435095071793 8.832032908685505E-4 -0.3351214826107025 -0.3627055883407593 -0.26176175475120544 0.18921209871768951 -0.15530593693256378 0.17226414382457733 -0.04012003913521767 -0.17960478365421295 -0.17127977311611176 -0.24478779733181 0.09298530966043472 0.3265667259693146 -0.02453744411468506 -0.17187975347042084 -0.07333929091691971 0.2681158483028412 -0.12312324345111847 0.13923515379428864 -0.016368916258215904 0.08618061244487762 -0.010233663022518158 -0.15154452621936798 -0.12772558629512787 0.3240639269351959 0.007611085660755634 -0.14260664582252502 0.1446980983018875 -0.03835997357964516 0.03753824159502983 -0.001273183966986835 -0.11718668788671494 -0.19166718423366547 -0.04293062910437584 0.12463249266147614 0.13966090977191925 -0.0874428004026413 0.0129555007442832 -0.30736351013183594 0.04205368086695671 0.1529235690832138 -0.09952522069215775 -0.09709848463535309 0.02479121834039688 0.18018534779548645 -0.11697011440992355 0.2930281162261963 0.2340923547744751 -0.21048568189144135 0.21832138299942017 -0.1898621767759323 0.13387912511825562 0.19066761434078217 0.004288132302463055 0.0466453842818737 0.014565182849764824 0.021627750247716904 0.17670877277851105 0.08120562881231308 0.03249111399054527 -0.21792659163475037 -0.28106212615966797 0.109476238489151 -0.10770190507173538 -0.14848415553569794
found 0.05544303357601166 0.23272961378097534 -0.013549783267080784 -0.06696347147226334 0.04812466353178024 0.02116086333990097 0.061054933816194534 0.017849821597337723 0.04832853004336357 -0.021273411810398102 0.32053232192993164 0.2588368356227875 -0.17447718977928162 0.3092283606529236 -0.23304152488708496 4.986918065696955E-4 0.1518435925245285 -0.2809704840183258 -0.07534902542829514 0.10452435910701752 -0.04677535966038704 0.15831013023853302 0.179502472281456 0.0737164244055748 -0.3296789228916168 0.32391414046287537 -0.08049376308917999 0.2757825553417206 -0.34635642170906067 0.05979257822036743 -0.3849359452724457 0.270600289106369 -0.020302318036556244 0.1110047921538353 0.045087605714797974 0.10418122261762619 0.06159736216068268 -0.28183862566947937 0.08103092014789581 0.07218913733959198 0.08362986147403717 0.23793216049671173 -0.028296811506152153 -0.12316332012414932 -0.0034561073407530785 -0.19487550854682922 0.1694326549768448 -0.1128767803311348 0.20287813246250153 0.022868353873491287 -0.06434996426105499 -0.011788126081228256 0.07097157090902328 -0.13032858073711395 0.18978162109851837 0.08931384235620499 0.3605235815048218 0.06015060469508171 -0.08344823867082596 0.06485006213188171 -0.07965117692947388 -0.020332753658294678 -0.10027024894952774 -0.11720845848321915 0.19044454395771027 -0.230939581990242 0.06928400695323944 0.07419438660144806 0.16325168311595917 0.14545215666294098 -0.17612288892269135 -0.03256193548440933 -0.07193028926849365 0.1073545515537262 0.042047493159770966 -0.10733544081449509 0.005756830330938101 0.1652805358171463 0.13632717728614807 0.07889706641435623 -0.24948619306087494 0.10175975412130356 0.04726245254278183 -0.43746429681777954 0.1143210306763649 0.05779401212930679 -0.15187561511993408 0.03898061066865921 -0.2144600749015808 -0.08954977244138718 -0.007984154857695103 -0.06876187026500702 0.1532336175441742 0.01536050159484148 -0.2777010500431061 0.23520207405090332 -0.0676654651761055 -0.21573929488658905 -0.04551512375473976 -0.09447462111711502
same 0.3232753872871399 0.33843839168548584 -0.48288899660110474 0.047587327659130096 0.27916616201400757 -0.1702485829591751 0.15327411890029907 0.25587213039398193 0.43557149171829224 0.16361762583255768 -0.2518153786659241 0.07204930484294891 0.3283175230026245 -0.0609281025826931 -0.4142071604728699 0.02380494400858879 0.25297847390174866 -0.3157341182231903 -0.23924976587295532 -0.08378392457962036 0.014826292172074318 -0.12460198998451233 -0.20511530339717865 0.021717149764299393 -0.17682495713233948 3.458361607044935E-4 0.4344030022621155 -0.3276747167110443 -0.32796064019203186 -0.4460974931716919 -0.09380851686000824 0.16821536421775818 0.043794021010398865 -0.1795060634613037 -0.09049046784639359 0.25926873087882996 0.15924528241157532 0.07434549927711487 0.3145799934864044 0.18046805262565613 -0.16866835951805115 0.14084938168525696 -0.14427980780601501 -0.041583310812711716 0.038039881736040115 0.196858212351799 0.13504832983016968 -0.08873545378446579 0.14910414814949036 0.26806309819221497 -0.2479560226202011 -0.26496338844299316 0.33343014121055603 -0.07676611095666885 -0.45167481899261475 -0.10866605490446091 0.03513218089938164 -0.28161823749542236 0.22631214559078217 0.13245606422424316 -0.22879262268543243 0.21577705442905426 0.02434852160513401 -0.30727747082710266 0.2873215973377228 0.17149172723293304 -0.06532008200883865 -0.2580914795398712 0.0620894692838192 0.289448082447052 -0.2358197122812271 0.03580031916499138 -0.07456662505865097 -0.13397720456123352 0.00961032323539257 -0.06425876170396805 0.029872920364141464 -0.007632022723555565 0.10947979986667633 -0.3367769718170166 0.3442661166191101 -0.011663248762488365 -0.3755457401275635 -0.33957692980766296 0.23334692418575287 -0.36803138256073 -0.05050405487418175 -0.28869619965553284 -0.02762449160218239 0.18689215183258057 -0.13837651908397675 0.08251653611660004 0.4524771273136139 0.07904723286628723 -0.35124361515045166 -0.011184239760041237 0.420940101146698 0.3699725270271301 -0.3865799605846405 0.026985937729477882
are -0.43088728189468384 -0.004939085803925991 0.3548944890499115 -0.29129818081855774 -0.06163305416703224 -0.17050330340862274 0.09419660270214081 -0.36690419912338257 0.20214612782001495 0.1154472604393959 -0.09998341649770737 0.18491850793361664 0.16236774623394012 -0.7043697237968445 -0.07258008420467377 0.13914722204208374 -0.285307914018631 -0.12419462203979492 -0.14143513143062592 -0.7594414949417114 0.03524956852197647 -0.10578212141990662 -0.3874131739139557 0.09544950723648071 0.04017948731780052 -0.15526412427425385 0.04581640660762787 -0.2362658977508545 0.4784315824508667 0.14421989023685455 -0.23411570489406586 0.22902272641658783 0.025644632056355476 -0.5857800245285034 0.10184575617313385 -0.06745952367782593 0.01742693781852722 -0.24068377912044525 0.15644776821136475 0.15716971457004547 0.11785642802715302 -0.0982036367058754 0.010419828817248344 0.3465730845928192 0.26935523748397827 -0.2940640449523926 -0.18796736001968384 -0.13716810941696167 0.37300682067871094 0.16575618088245392 -0.034530092030763626 0.05929009988903999 -0.08268952369689941 -0.2522678077220917 -0.1995939463376999 0.17318229377269745 0.008175620809197426 0.211864173412323 -0.25606873631477356 0.10694711655378342 -0.037428051233291626 0.06513532251119614 -0.10952076315879822 0.06921587139368057 -0.10486992448568344 -0.042456403374671936 -0.14437273144721985 -0.280580073595047 -0.3165385127067566 0.20973318815231323 0.2254204899072647 -0.00579839525744319 0.39765360951423645 0.19645798206329346 0.21230915188789368 0.08674827218055725 -0.25244393944740295 -0.11242754012346268 0.4427872896194458 0.2951851487159729 0.1011965349316597 -0.1321115344762802 0.18750646710395813 -0.21524865925312042 -0.08398333936929703 0.002407227410003543 0.3385084271430969 -0.11688609421253204 0.2710336148738861 0.15701478719711304 0.1611577719449997 0.010314106941223145 -0.20123085379600525 -0.3610939681529999 0.2218514233827591 -0.08481977880001068 -0.48376554250717163 -0.08070079237222672 0.08004967123270035 0.01660849153995514
does -0.07966523617506027 -0.09858036041259766 0.01732541248202324 0.12792666256427765 0.02834218181669712 -0.06167963892221451 -0.23371562361717224 -0.22543230652809143 0.383708655834198 0.00646751606836915 0.021086860448122025 -0.45206114649772644 -0.09527534246444702 0.1810307502746582 0.14882278442382812 0.4004277288913727 -0.04015049338340759 0.15099407732486725 0.1392391175031662 0.29774728417396545 -0.01652544178068638 0.10878685116767883 0.18161369860172272 0.24017319083213806 0.7010267972946167 0.39376509189605713 -0.007175111211836338 0.49316710233688354 -0.07849881798028946 0.32541126012802124 -0.2667793035507202 -0.6452814340591431 0.2895725965499878 0.42986229062080383 0.09203283488750458 -0.16383615136146545 -0.13170835375785828 -0.27150148153305054 0.04168711602687836 0.023353494703769684 0.019817998632788658 -0.42486438155174255 -0.048675354570150375 -0.18735557794570923 -0.028699606657028198 -0.49278777837753296 -0.15069635212421417 -0.11324503272771835 -0.1981820911169052 -0.288300096988678 0.205792635679245 0.25414618849754333 0.24677374958992004 0.12941955029964447 -0.1508997231721878 0.13516013324260712 -0.24941885471343994 0.2158801555633545 -0.029186120256781578 -0.16822104156017303 0.0018829110777005553 0.06405697762966156 -0.3781416118144989 -0.1428859978914261 -0.4430154263973236 0.03445076942443848 0.07830099016427994 -0.19473771750926971 -0.05409901961684227 0.11193408071994781 0.42015278339385986 -0.12934556603431702 -0.38881155848503113 0.10554128885269165 0.05259053036570549 -0.3895207941532135 -0.037223245948553085 0.06508703529834747 -0.020993614569306374 0.1913636475801468 0.12317878007888794 0.05698180943727493 -0.42972639203071594 0.26285243034362793 0.051119882613420486 0.007588738575577736 -0.10019698739051819 0.11968994140625 0.15469282865524292 -0.07502450793981552 0.13249017298221588 0.14235296845436096 0.45681530237197876 -0.05022436007857323 -0.17349915206432343 0.26119330525398254 -0.08222256600856781 0.16824613511562347 -0.17499835789203644 0.21810491383075714
by -0.054032858461141586 0.34801626205444336 -0.0752020999789238 0.12481649965047836 -0.06835301965475082 0.31569117307662964 0.10400493443012238 -0.11785906553268433 0.039482828229665756 0.10229917615652084 -0.04590296745300293 -0.16184395551681519 -0.014962999150156975 -0.04469578340649605 -0.01758531667292118 -0.01571069471538067 -0.03953903168439865 -0.04128335416316986 -0.07991212606430054 0.10378897190093994 -0.11303745210170746 0.3132544457912445 0.05072306841611862 -0.154708594083786 0.042495857924222946 0.08125565946102142 -0.0410427562892437 -0.16621653735637665 -0.29856130480766296 -0.2333667129278183 -5.923754069954157E-4 0.017946882173419 -0.17992624640464783 -0.2159223109483719 -0.07038307189941406 -0.07978875935077667 -0.033243484795093536 -0.1065436452627182 0.12961657345294952 -0.04464685916900635 0.11846581846475601 0.0413561686873436 -0.0336521677672863 -0.04659205675125122 0.12774524092674255 -0.180829256772995 0.06744434684515 0.3024540841579437 0.10367973148822784 -0.10039632022380829 -0.16277392208576202 -0.04501750320196152 -0.11014822870492935 -0.11807692050933838 0.040304750204086304 0.27202704548835754 -0.17043814063072205 -0.1365559995174408 -0.2904902696609497 -0.06109192594885826 0.026322016492486 -0.13572467863559723 0.08660022169351578 0.002777592046186328 -0.11037495732307434 0.02415592595934868 0.04382938891649246 -0.08266160637140274 0.08577197790145874 0.05514721944928169 -0.20433387160301208 0.18458271026611328 0.20238925516605377 0.04479873180389404 0.024807151407003403 0.07052909582853317 -0.01718738302588463 -0.03924556076526642 -0.07534201443195343 0.228373721241951 0.23705102503299713 -0.1381090134382248 0.18441236019134521 -0.09766685217618942 0.13638760149478912 0.24803633987903595 -0.09478193521499634 0.03502501919865608 0.22614248096942902 -0.03285250812768936 -0.3305928707122803 0.004494369495660067 0.2139054238796234 0.0829688087105751 -0.15719692409038544 -0.0494273416697979 0.18289294838905334 0.03547072410583496 -0.053516559302806854 0.005903470329940319
national 0.08370429277420044 0.16550859808921814 -0.22445110976696014 -0.035221993923187256 0.007915336638689041 -0.09278212487697601 -0.02688414976000786 0.10333574563264847 0.11381114274263382 0.09240928292274475 -0.058052536100149155 -0.017859632149338722 0.10957977175712585 0.01133034098893404 -0.09474938362836838 -0.05033734068274498 -0.013834677636623383 -0.06660380959510803 0.01729557290673256 -0.001987554831430316 -0.03023252636194229 -0.07535009831190109 -0.10012596100568771 -0.014930939301848412 0.04478355497121811 0.0018600205658003688 0.07750161737203598 -0.0702001079916954 0.07601705193519592 -0.01752394437789917 -0.05891112610697746 -0.09293856471776962 0.05759195610880852 -0.09116865694522858 0.00562294339761138 0.007960747927427292 0.06313047558069229 0.13377706706523895 0.06706584990024567 0.038784824311733246 -0.019626550376415253 -0.016813522204756737 -0.027605677023530006 0.0035279723815619946 0.052732691168785095 0.03846871480345726 0.02109290286898613 -0.09413868933916092 0.07313147187232971 0.11061464250087738 0.009063946083188057 -0.10118378698825836 -0.05322213098406792 -0.10257425904273987 0.051700517535209656 -0.09988486021757126 0.013609111309051514 -0.04835938289761543 -0.0024114996194839478 0.0053016506135463715 0.01545027457177639 -0.03612753376364708 0.042009007185697556 0.06929466873407364 0.09659843146800995 0.011150859296321869 0.042763419449329376 -0.08693941682577133 -0.07015155255794525 0.020611699670553207 -0.0865328460931778 0.0435754768550396 -0.02707092836499214 0.013092108070850372 0.04868520423769951 0.002898577833548188 -0.015740472823381424 0.036459192633628845 0.0200678538531065 -0.04631068557500839 0.04173285514116287 0.009054020047187805 -0.04796073958277702 0.14917120337486267 -0.0030979623552411795 -0.0676703006029129 -0.019202634692192078 -0.12076705694198608 0.02057010866701603 0.017846843227744102 -0.08771941810846329 -0.03992458060383797 -0.0647675171494484 0.0010698242112994194 -0.07406402379274368 -0.14369377493858337 0.06409420073032379 0.003747812705114484 0.00842805951833725 -0.04712255671620369
where -0.141073077917099 -0.2588421106338501 -0.23398731648921967 0.07421807199716568 -0.1535564363002777 -0.19707246124744415 -0.1919657438993454 0.20328570902347565 0.2153521031141281 0.049517564475536346 -0.1836041510105133 -0.24516138434410095 0.4087564945220947 -0.7147367596626282 -0.234503373503685 -0.2677426040172577 -0.07530461996793747 -0.008033502846956253 -0.5435045957565308 0.05054798722267151 -0.18631386756896973 -0.06659185141324997 0.1076459065079689 0.21110819280147552 -0.15367798507213593 -0.08206921070814133 0.48395854234695435 -0.03775137662887573 0.07121456414461136 0.05599581450223923 0.002839502179995179 0.12167499959468842 -0.06288225203752518 -0.009498759172856808 0.1054372638463974 -0.3268621861934662 0.3028654456138611 -0.05007106065750122 0.15136021375656128 -0.13813497126102448 -0.3056129813194275 0.019859815016388893 0.23103739321231842 0.13874086737632751 -0.11771628260612488 0.04508516564965248 -0.03273807466030121 0.421672523021698 -0.42744168639183044 -0.1573755145072937 -0.23800422251224518 -0.04741312190890312 0.046272337436676025 0.05299871042370796 0.22698502242565155 -0.13134819269180298 0.16706687211990356 -0.012752707116305828 0.057928416877985 0.35425853729248047 0.4481901228427887 -0.05310390517115593 0.3337656259536743 0.2984350919723511 0.14556320011615753 0.22376912832260132 0.057420454919338226 0.15997099876403809 0.31635335087776184 0.09637610614299774 -0.001605260418727994 0.013587677851319313 -0.19105006754398346 -0.23130038380622864 0.6374913454055786 0.06056773662567139 -0.036517783999443054 -0.24486663937568665 0.07351305335760117 -0.013701483607292175 0.02160080522298813 0.0036105094477534294 0.08555813878774643 -0.002430591732263565 0.04220350831747055 -0.11001350730657578 0.2609396278858185 -0.08892932534217834 -0.21711590886116028 -0.13614986836910248 0.23806242644786835 0.11613602191209793 0.2595035135746002 0.16373135149478912 0.20729584991931915 -0.08147148042917252 0.10199025273323059 0.19435669481754303 0.04208555072546005 0.0695730671286583
after -0.09869886934757233 0.48285868763923645 -0.016585780307650566 -0.11002738773822784 0.11039608716964722 0.19147229194641113 0.09286655485630035 -0.00933349970728159 -0.15362562239170074 -0.11647139489650726 0.05564533919095993 -0.18350842595100403 0.12547297775745392 -0.1930994838476181 0.03718462213873863 -0.2202218472957611 -0.18612810969352722 -0.07784084230661392 -0.21464383602142334 0.09920340776443481 -0.2830559015274048 0.3009641468524933 -0.31205931305885315 -0.016846781596541405 0.1956966072320938 0.006817607209086418 -0.021232858300209045 0.09444340318441391 -0.3652486205101013 -0.39777353405952454 -0.051400914788246155 0.07115558534860611 -0.1941964328289032 -0.015805833041667938 -0.13216912746429443 -0.27684810757637024 0.28784388303756714 0.1978951245546341 -0.08687778562307358 -0.017966004088521004 0.13657452166080475 0.05367020517587662 0.13713857531547546 -0.17642490565776825 0.0037730077747255564 -0.17276281118392944 0.25600457191467285 0.3259144127368927 0.08468525856733322 0.062166713178157806 -0.189522847533226 0.05884705111384392 0.3870806396007538 -0.11834679543972015 -0.16774454712867737 -0.10175704210996628 -0.1744738668203354 -0.05048756301403046 -0.14894399046897888 0.18631459772586823 0.35863420367240906 -0.14623881876468658 0.30983996391296387 0.03437969461083412 0.08521545678377151 0.12094877660274506 0.059345800429582596 -0.051595643162727356 -0.0576128214597702 0.16451822221279144 -0.12032166123390198 0.24240300059318542 -0.0995844230055809 0.17906028032302856 0.24649034440517426 -0.10432707518339157 0.0035165180452167988 -0.2130938172340393 -0.16430722177028656 0.33334410190582275 -0.06500932574272156 0.01664639636874199 0.3213253617286682 0.03765953704714775 -0.006056097336113453 0.14791694283485413 -0.2095436006784439 0.11252208054065704 0.32484570145606995 -0.09472990781068802 -0.04126681759953499 -0.003473915858194232 0.32223641872406006 -0.06792984157800674 -0.04508305341005325 -0.25134050846099854 0.11450880765914917 0.11688476800918579 -0.11169657856225967 -0.10086788237094879
so -0.10536082088947296 -0.08911135792732239 -0.07774829119443893 0.05464735999703407 0.042122311890125275 0.09893923252820969 -0.11883046478033066 -0.3681013882160187 -0.2842850387096405 0.036388497799634933 0.23774714767932892 0.2931593060493469 -0.05923715606331825 -0.18322163820266724 0.06917336583137512 0.045363061130046844 -0.06177753582596779 -0.23342034220695496 0.05133208632469177 0.3049629032611847 -0.07549488544464111 0.1155310794711113 0.07976237684488297 -0.06142200902104378 -0.11635705083608627 0.2593404948711395 -0.23853203654289246 -0.05019054934382439 -0.03525969758629799 0.06722494959831238 -0.1365736424922943 0.11415548622608185 0.001979563618078828 -0.06706724315881729 0.004168139770627022 -0.12152531743049622 -0.18263579905033112 0.010706060566008091 -0.19674256443977356 0.13442055881023407 -0.3067587614059448 0.017069509252905846 -0.05505366250872612 0.07645253837108612 -0.0418485552072525 0.16956286132335663 0.032256755977869034 0.04852340742945671 -0.19977566599845886 0.0781104639172554 0.05808936804533005 0.079380102455616 -0.06405957043170929 -0.07729705423116684 0.24070659279823303 -0.20153281092643738 -0.2830878794193268 0.1791543811559677 0.056070175021886826 -0.30726972222328186 0.19294311106204987 0.20764273405075073 0.044337138533592224 -0.14497502148151398 -0.24281834065914154 -0.14170755445957184 -0.07118380814790726 0.11966495215892792 0.025633201003074646 -0.16839599609375 0.150856614112854 0.0685143917798996 0.2534550130367279 6.353381322696805E-4 0.05061712488532066 0.01868683286011219 -0.08858158439397812 0.03902949020266533 -0.11624117940664291 -0.29305195808410645 0.11715161055326462 -0.13843266665935516 0.4133439064025879 0.04534706473350525 -0.07812853902578354 0.09839054942131042 0.20863531529903412 -0.06555195152759552 0.09509436041116714 0.1063079684972763 0.21798385679721832 0.019356850534677505 0.2610224783420563 0.2961084246635437 -0.08942689001560211 -0.17901098728179932 -0.2013760358095169 0.11965199559926987 0.23560097813606262 0.281914621591568
a 0.003822424914687872 0.1650133579969406 0.0017015151679515839 -0.1391030251979828 0.04073081910610199 -0.009941432625055313 0.3380664587020874 -0.282741516828537 -0.211867094039917 -0.059925030916929245 -0.2819958031177521 -0.16707302629947662 0.2874935567378998 0.2283381074666977 -0.15329761803150177 -0.027953721582889557 -0.27486518025398254 -0.2586710453033447 -0.28835442662239075 -0.05142015591263771 -0.041321296244859695 0.059616439044475555 0.20306295156478882 0.07470899820327759 -0.2004462480545044 0.07843594253063202 0.5232445597648621 0.1526222825050354 -0.1948118656873703 -0.2197979837656021 0.21028661727905273 0.08509571105241776 -0.22020217776298523 -0.20284852385520935 -0.28225719928741455 -0.0014572413638234138 -0.1121787577867508 0.5995408296585083 -0.14264944195747375 0.09422235935926437 -0.29758647084236145 -0.11000975966453552 -0.11696116626262665 -0.030411893501877785 -0.3913590908050537 0.05334227904677391 0.07327185571193695 0.32814592123031616 0.16190920770168304 0.33490636944770813 0.022303473204374313 -0.026024244725704193 0.26860108971595764 -0.2107611745595932 0.030218100175261497 0.0076810033060610294 -0.44394469261169434 -0.20640286803245544 -0.03453341871500015 -0.09845159947872162 0.10235629975795746 -0.20008940994739532 -0.40501976013183594 0.09350614994764328 -0.011698181740939617 -0.09807085245847702 -0.03211801499128342 0.07274362444877625 0.19538722932338715 -0.30217260122299194 -0.08673833310604095 -0.07436976581811905 0.30923208594322205 -0.2645208537578583 0.09602797031402588 -0.2602108418941498 -0.046053241938352585 0.27004274725914 0.03070765919983387 0.13938623666763306 0.27527549862861633 -0.2983669638633728 -0.16714516282081604 -0.06492314487695694 0.029422026127576828 0.2512824237346649 -0.20627343654632568 0.16133834421634674 0.16096660494804382 0.09815844893455505 -0.17465808987617493 0.3569606840610504 -0.5067318081855774 0.23534627258777618 -0.49058231711387634 -0.0024887998588383198 -0.12830042839050293 -0.35263606905937195 0.3304367959499359 0.2316383719444275
think 0.07308540493249893 -0.28689315915107727 0.3346327543258667 -0.01378521416336298 0.023022685199975967 0.18446122109889984 -0.20837360620498657 0.14554399251937866 -0.06962714344263077 -0.24969446659088135 -0.2705220878124237 0.050306983292102814 -0.32033267617225647 -0.07563690096139908 -0.10724295675754547 -0.186961829662323 -0.05120553821325302 -0.3779487609863281 -0.04494772478938103 -0.19596362113952637 -0.034683823585510254 -0.12314239889383316 0.04126659780740738 0.14422790706157684 -0.022118300199508667 -0.010455910116434097 -0.17380475997924805 -0.21777597069740295 -0.19821760058403015 -0.14884549379348755 -0.04778183624148369 0.2902536988258362 0.22714577615261078 0.22616063058376312 -0.2436886429786682 0.2683546841144562 -0.3609370291233063 -0.04573415219783783 -0.04165327176451683 -0.020433269441127777 0.03087700344622135 0.1809731274843216 0.10509258508682251 0.03826826810836792 -0.22935372591018677 -0.2407749891281128 -0.008885718882083893 -0.21094025671482086 -0.22775499522686005 0.21803699433803558 0.024645362049341202 0.1766417771577835 0.07507102936506271 0.10776539891958237 0.08075381070375443 0.04496898874640465 -0.02687716856598854 -0.009823073633015156 0.3631860613822937 -0.051435161381959915 -0.19836686551570892 0.030663534998893738 0.1090601310133934 0.2054399996995926 0.14930160343647003 -0.13348488509655 -0.06448769569396973 0.05600512772798538 -0.15511265397071838 -0.12878045439720154 0.14271432161331177 -0.24560026824474335 -0.03690122440457344 -0.283343106508255 -0.13756759464740753 0.1344299167394638 -0.06064226105809212 0.0025488361716270447 -0.20987097918987274 -0.047930024564266205 0.2081020325422287 -0.0222451351583004 0.23293916881084442 -0.18278013169765472 -0.01815364696085453 -0.2034032642841339 -0.04814463108778 -0.07518178969621658 -0.0033163013868033886 0.028272151947021484 -0.03750748559832573 0.15584973990917206 0.24633143842220306 -0.10587161779403687 0.1208658292889595 0.01692238263785839 0.255392462015152 0.09658706933259964 0.03641889616847038 -0.5200340747833252
set 0.022762687876820564 0.29658135771751404 -0.059276074171066284 -0.12540532648563385 0.11682426929473877 0.1028219684958458 -0.03846774995326996 -0.1506425142288208 0.033796388655900955 0.07242941111326218 0.10155509412288666 0.03757103532552719 0.082865409553051 0.009628983214497566 -0.15832513570785522 -0.0863986536860466 -0.2796732783317566 -0.14640837907791138 0.004972037859261036 0.06940773874521255 -0.13858136534690857 0.16022151708602905 -0.07960256934165955 -0.01545634213835001 -0.015866665169596672 0.1818653792142868 -0.06551698595285416 0.03878597170114517 -0.2327946573495865 0.02845032885670662 -0.13038818538188934 0.04872199147939682 0.18989866971969604 -0.09182503074407578 -0.052880603820085526 -0.09440438449382782 0.09515266865491867 -0.29116290807724 -0.05010267719626427 0.13661056756973267 0.15898717939853668 -0.0734802857041359 0.05710480734705925 0.14145326614379883 0.10742100328207016 -0.005371817387640476 -0.12626752257347107 -0.10586483031511307 0.0479959137737751 -0.14442178606987 -0.16394217312335968 0.04133981838822365 0.12918244302272797 0.0451696440577507 0.17245303094387054 -0.08443185687065125 0.06354749947786331 -0.08041978627443314 -0.023109333589673042 0.17873352766036987 -0.16476884484291077 0.03707074746489525 0.24811133742332458 0.03202436864376068 0.4008496403694153 0.0324370302259922 0.11768889427185059 -0.006896761246025562 0.23476380109786987 0.044659119099378586 -0.08093646168708801 -0.22556523978710175 -0.11733806133270264 0.2674195468425751 -0.03425924479961395 -0.13238295912742615 -0.014226619154214859 -0.153185173869133 -0.1093302071094513 0.08530250936746597 -0.3937273323535919 -0.06817891448736191 -0.1750885397195816 0.03725634515285492 0.12667407095432281 -0.11338170617818832 -0.1700277477502823 0.0011921796249225736 -0.09872204810380936 0.0848836675286293 -0.19877712428569794 -0.051339857280254364 -0.08759286254644394 0.0164490919560194 -0.04444413259625435 0.06364269554615021 0.12371733039617538 0.048261359333992004 -0.22921688854694366 0.03792653977870941
